tree
version=v4
num_class=5
num_tree_per_iteration=5
label_index=0
max_feature_idx=640
objective=multiclass num_class:5
feature_names=Column_0 Column_1 Column_2 Column_3 Column_4 Column_5 Column_6 Column_7 Column_8 Column_9 Column_10 Column_11 Column_12 Column_13 Column_14 Column_15 Column_16 Column_17 Column_18 Column_19 Column_20 Column_21 Column_22 Column_23 Column_24 Column_25 Column_26 Column_27 Column_28 Column_29 Column_30 Column_31 Column_32 Column_33 Column_34 Column_35 Column_36 Column_37 Column_38 Column_39 Column_40 Column_41 Column_42 Column_43 Column_44 Column_45 Column_46 Column_47 Column_48 Column_49 Column_50 Column_51 Column_52 Column_53 Column_54 Column_55 Column_56 Column_57 Column_58 Column_59 Column_60 Column_61 Column_62 Column_63 Column_64 Column_65 Column_66 Column_67 Column_68 Column_69 Column_70 Column_71 Column_72 Column_73 Column_74 Column_75 Column_76 Column_77 Column_78 Column_79 Column_80 Column_81 Column_82 Column_83 Column_84 Column_85 Column_86 Column_87 Column_88 Column_89 Column_90 Column_91 Column_92 Column_93 Column_94 Column_95 Column_96 Column_97 Column_98 Column_99 Column_100 Column_101 Column_102 Column_103 Column_104 Column_105 Column_106 Column_107 Column_108 Column_109 Column_110 Column_111 Column_112 Column_113 Column_114 Column_115 Column_116 Column_117 Column_118 Column_119 Column_120 Column_121 Column_122 Column_123 Column_124 Column_125 Column_126 Column_127 Column_128 Column_129 Column_130 Column_131 Column_132 Column_133 Column_134 Column_135 Column_136 Column_137 Column_138 Column_139 Column_140 Column_141 Column_142 Column_143 Column_144 Column_145 Column_146 Column_147 Column_148 Column_149 Column_150 Column_151 Column_152 Column_153 Column_154 Column_155 Column_156 Column_157 Column_158 Column_159 Column_160 Column_161 Column_162 Column_163 Column_164 Column_165 Column_166 Column_167 Column_168 Column_169 Column_170 Column_171 Column_172 Column_173 Column_174 Column_175 Column_176 Column_177 Column_178 Column_179 Column_180 Column_181 Column_182 Column_183 Column_184 Column_185 Column_186 Column_187 Column_188 Column_189 Column_190 Column_191 Column_192 Column_193 Column_194 Column_195 Column_196 Column_197 Column_198 Column_199 Column_200 Column_201 Column_202 Column_203 Column_204 Column_205 Column_206 Column_207 Column_208 Column_209 Column_210 Column_211 Column_212 Column_213 Column_214 Column_215 Column_216 Column_217 Column_218 Column_219 Column_220 Column_221 Column_222 Column_223 Column_224 Column_225 Column_226 Column_227 Column_228 Column_229 Column_230 Column_231 Column_232 Column_233 Column_234 Column_235 Column_236 Column_237 Column_238 Column_239 Column_240 Column_241 Column_242 Column_243 Column_244 Column_245 Column_246 Column_247 Column_248 Column_249 Column_250 Column_251 Column_252 Column_253 Column_254 Column_255 Column_256 Column_257 Column_258 Column_259 Column_260 Column_261 Column_262 Column_263 Column_264 Column_265 Column_266 Column_267 Column_268 Column_269 Column_270 Column_271 Column_272 Column_273 Column_274 Column_275 Column_276 Column_277 Column_278 Column_279 Column_280 Column_281 Column_282 Column_283 Column_284 Column_285 Column_286 Column_287 Column_288 Column_289 Column_290 Column_291 Column_292 Column_293 Column_294 Column_295 Column_296 Column_297 Column_298 Column_299 Column_300 Column_301 Column_302 Column_303 Column_304 Column_305 Column_306 Column_307 Column_308 Column_309 Column_310 Column_311 Column_312 Column_313 Column_314 Column_315 Column_316 Column_317 Column_318 Column_319 Column_320 Column_321 Column_322 Column_323 Column_324 Column_325 Column_326 Column_327 Column_328 Column_329 Column_330 Column_331 Column_332 Column_333 Column_334 Column_335 Column_336 Column_337 Column_338 Column_339 Column_340 Column_341 Column_342 Column_343 Column_344 Column_345 Column_346 Column_347 Column_348 Column_349 Column_350 Column_351 Column_352 Column_353 Column_354 Column_355 Column_356 Column_357 Column_358 Column_359 Column_360 Column_361 Column_362 Column_363 Column_364 Column_365 Column_366 Column_367 Column_368 Column_369 Column_370 Column_371 Column_372 Column_373 Column_374 Column_375 Column_376 Column_377 Column_378 Column_379 Column_380 Column_381 Column_382 Column_383 Column_384 Column_385 Column_386 Column_387 Column_388 Column_389 Column_390 Column_391 Column_392 Column_393 Column_394 Column_395 Column_396 Column_397 Column_398 Column_399 Column_400 Column_401 Column_402 Column_403 Column_404 Column_405 Column_406 Column_407 Column_408 Column_409 Column_410 Column_411 Column_412 Column_413 Column_414 Column_415 Column_416 Column_417 Column_418 Column_419 Column_420 Column_421 Column_422 Column_423 Column_424 Column_425 Column_426 Column_427 Column_428 Column_429 Column_430 Column_431 Column_432 Column_433 Column_434 Column_435 Column_436 Column_437 Column_438 Column_439 Column_440 Column_441 Column_442 Column_443 Column_444 Column_445 Column_446 Column_447 Column_448 Column_449 Column_450 Column_451 Column_452 Column_453 Column_454 Column_455 Column_456 Column_457 Column_458 Column_459 Column_460 Column_461 Column_462 Column_463 Column_464 Column_465 Column_466 Column_467 Column_468 Column_469 Column_470 Column_471 Column_472 Column_473 Column_474 Column_475 Column_476 Column_477 Column_478 Column_479 Column_480 Column_481 Column_482 Column_483 Column_484 Column_485 Column_486 Column_487 Column_488 Column_489 Column_490 Column_491 Column_492 Column_493 Column_494 Column_495 Column_496 Column_497 Column_498 Column_499 Column_500 Column_501 Column_502 Column_503 Column_504 Column_505 Column_506 Column_507 Column_508 Column_509 Column_510 Column_511 Column_512 Column_513 Column_514 Column_515 Column_516 Column_517 Column_518 Column_519 Column_520 Column_521 Column_522 Column_523 Column_524 Column_525 Column_526 Column_527 Column_528 Column_529 Column_530 Column_531 Column_532 Column_533 Column_534 Column_535 Column_536 Column_537 Column_538 Column_539 Column_540 Column_541 Column_542 Column_543 Column_544 Column_545 Column_546 Column_547 Column_548 Column_549 Column_550 Column_551 Column_552 Column_553 Column_554 Column_555 Column_556 Column_557 Column_558 Column_559 Column_560 Column_561 Column_562 Column_563 Column_564 Column_565 Column_566 Column_567 Column_568 Column_569 Column_570 Column_571 Column_572 Column_573 Column_574 Column_575 Column_576 Column_577 Column_578 Column_579 Column_580 Column_581 Column_582 Column_583 Column_584 Column_585 Column_586 Column_587 Column_588 Column_589 Column_590 Column_591 Column_592 Column_593 Column_594 Column_595 Column_596 Column_597 Column_598 Column_599 Column_600 Column_601 Column_602 Column_603 Column_604 Column_605 Column_606 Column_607 Column_608 Column_609 Column_610 Column_611 Column_612 Column_613 Column_614 Column_615 Column_616 Column_617 Column_618 Column_619 Column_620 Column_621 Column_622 Column_623 Column_624 Column_625 Column_626 Column_627 Column_628 Column_629 Column_630 Column_631 Column_632 Column_633 Column_634 Column_635 Column_636 Column_637 Column_638 Column_639 Column_640
feature_infos=[-1.7320342087487886:1.7320486425055182] [-0.79594936697750918:15.027455904372381] [-0.80179796662862934:10.072949501426752] [-1.267937414698221:1.1875282465845056] [-0.24600816481024168:20.919749925720087] [-1.1049084308831074:7.3527456852728212] [-0.4131066368411363:4.9207496436595939] [-1.0368731548375354:7.8042831377046546] [-0.7911393246332834:3.7664307623420235] [-0.71760356277981796:11.316646650002747] [-0.77866745466534981:13.375774034556745] [-1.0841498401072409:1.867276619977708] [-0.56588761776849283:7.7662536152141444] [-0.55728120790516444:11.30172120144444] [-0.98884584972222034:3.4580287304065838] [-0.61454959948928567:27.326630692250582] [-0.25136664414414533:5.3557498744201402] [-0.68434391362029223:1.4639217910665989] [-3.4975635194652535:0.95963150447318113] [-0.24796434968442418:22.297310938481345] [-0.17537454922127499:23.062394194440945] [-0.57386648983938804:23.640220463873735] [-0.45907139677190401:2.9643374266093714] [-2.0211194413845268:0.74852917906532779] [-0.31004783495963778:9.5550544984019421] [-0.90185889079834658:3.6664878300850523] [-1.4638501094227998:1.4638501094227998] [-0.69055986305488615:7.6815144722996269] [-0.62056056314115471:2.2627018429930938] [-0.21365391344576123:17.175128215233624] [-0.64051653707131628:3.2434616267042191] [-1.1321420896202534:4.1764600079772967] [-4.2674401810650817:4.6816963964578306] [-1.9888676452871448:0.7564862768997298] [-0.19906250622928126:14.223750534132222] [-0.37326266684567255:8.855608775975373] [-0.34488749191907997:5.3276041514868409] [-0.45501977034487573:2.2002306172806736] [-0.1265994037613789:7.8989387808131974] [-0.45990493737185356:13.02194776074994] [-0.40011858182729565:2.6656076992574889] [-0.51731439442910976:17.269897797130348] [-1.9457226974770783:0.60416347882125809] [-0.22504507208505672:7.9236361570753857] [-1.8391674884845717:0.54372426995432299] [-5.7102742005241236:0.30015125600951387] [-0.41241527648934539:2.6725354250377977] [-0.30989539990668286:6.3189619820233354] [-1.2925986032290944:5.3300534704328886] [-0.68561934744351782:1.4585352699405565] [-0.73904366235839569:15.722777812152943] [-0.90677626708984849:3.6978889535354456] [-3.7210378827703088:4.2035067161736128] [-0.6046523634421882:2.3015437375285894] [-1.9686375287664439:0.76003351607798064] [-0.78752786091077775:3.7474118864116464] [-0.79021286421684511:18.136821002742668] [-1.1273078653093433:4.3337698944743988] [-0.44484954149758671:4.5685095747831257] [-4.833193467961804:0.2073430468333424] [-1.1111194537593416:3.9539768986696409] [-3.5855439546655186:3.7309548539475457] [-2.1989801998842915:4.8588853365396485] [-0.75707564078201461:10.683379776320564] [-1.7348882947460345:3.9473208068045866] [-0.23095702868693943:8.3064723149246564] [-2.2672240182080388:0.45495277241283888] [-4.4817323821225346:0.22312800380249476] [-0.16640321557415233:19.435723758528685] [-0.033091425705112629:37.837311918665939] [-0.48384553921906104:7.021979421197468] [-0.16956510449208098:20.952175358917831] [-1.9304613443296039:0.60688773384174877] [-0.14664264739092731:31.094417163336978] [-2.7093118168568919:0.36909741941778906] [-0.4911187197697281:12.266738350190932] [-0.87684516597550477:3.6628503118710927] [-0.36487788423605955:7.2533490380876939] [-0.81068655969805026:3.5421773624158392] [-4.9563155884409538:0.2021571100418203] [-0.78059176998281365:3.630207728933954] [-0.45501977022911022:2.2002318823777838] [-2.4866282687325776:3.2246189912880037] [-0.44963423204478881:2.7365320175844183] [-0.13451797491550449:14.918198649269634] [-0.45369429469541106:21.845567435744314] [-3.5609290157749971:3.9634034885825202] [-0.87988037218093085:3.7377424375417325] [-7.503133571593728:0.13327764865947783] [-0.88341489583098787:3.8933008983135124] [-0.083617464018022433:11.95922420924493] [-3.5682987570604956:3.9703544284408609] [-0.031768885035862615:57.883403227436816] [-0.065594683560624145:15.67083479919607] [-0.59292192334007288:6.3290470716177785] [-0.15369112797396797:21.792938416147344] [-1.8588601454307496:2.9776566439098846] [-0.024129292179304127:41.281363739439747] [-0.71194400880956143:9.4959943699110596] [-0.16388249000738997:28.748253641293289] [-0.42737453656977037:4.911915055356733] [-2.8756155391092015:0.34925555504088873] [-0.13591083602413515:31.975361884394783] [-0.70362220586062008:15.726434899710201] [-1.0540688442263484:7.0819759499725787] [-1.6124698763823797:0.62144470956750464] [-0.40708842108187748:6.5782062436554138] [-1.6911271056925277:4.7827642863085353] [-0.21102664379834873:16.27440265008433] [-0.32308737323806908:5.5511395003802528] [-0.2126165224782646:9.0776673312609848] [-0.14841874368036978:6.7329077541344722] [-0.27702116870518023:8.0064782907726268] [-0.26539751364467645:8.8020602764187945] [-0.16105343307562517:8.7067138281315977] [-0.67421601947583354:3.0200779142688017] [-0.16057067225419216:23.718855361444945] [-0.19230553312343801:15.191561863525536] [-1.6402873179239723:0.84924919337296645] [-0.11331507067898332:13.068429614904947] [-0.46243707504568665:9.1917030503655219] [-0.72535729457447329:4.4311241723840755] [-2.0647891215017284:0.48431095920957601] [-0.80631642010776228:4.439775010040039] [-0.81711435421189105:4.1449871474231159] [-10.824374645863861:0.098035457181143384] [-15.687215499192906:4.1382364776519474] [-0.80394082146815571:3.4921402345052392] [-1.8576719686270153:0.57472154837579625] [-0.44004705580342379:21.287634465033616] [-0.91006727701824297:3.6911136076715962] [-2.1065237305039646:0.4747157535038834] [-1.8942149885042465:0.52792317982323778] [-1.8434725764631958:0.5906515430348005] [-0.15471075142168994:9.0523215808509168] [-0.15984545833046593:17.039341886989934] [-1.027396027393269:1.0137549023326371] [-0.64516160241137743:23.802334079247295] [-0.47286162602949583:2.8842167685317759] [-0.19271804096036771:15.739565433523055] [-0.11055645312672896:16.045244092056098] [-0.66916076260109802:6.0687625774876324] [-0.060668184309478262:42.166995900403663] [-0.42322432827750495:3.3560394198133912] [-0.33204215674570375:6.7710615144651509] [-0.39629257191525019:9.6786072546393207] [-2.9654482504544823:4.4064329379737011] [-0.24220498494320716:5.5101234607326459] [-0.055259552910417988:24.669372621773245] [-0.11494384712959552:12.268203669860812] [-0.37565106988272456:25.250311591491243] [-4.9786000133609374:0.20123805696732772] [-0.25349551738617571:4.0472300606971379] [-1.7503148706044864:0.57132577503306081] [-0.27797009655778132:23.356205584361341] [-0.16770904068775092:16.736301469339903] [-0.37522399568715503:12.100076996865514] [-1.6228304601883468:0.6860474867230355] [-0.11369842813561813:17.111188215801754] [-1.3354801953470838:4.6670864003195405] [-0.49480613146772401:6.7942990562150367] [-0.70166805925779618:3.0594255641348886] [-1.3214991217468641:0.75671635610178822] [-0.3425768896824683:5.5534289319213972] [-0.68544315309361659:12.307977591063317] [-0.034625111978782971:39.260177716357028] [-0.13343723596622334:15.002293856452237] [-0.88701771635465521:3.9624976014851341] [-0.084751947840981695:11.799138845472649] [-0.19814166375661194:16.461394917940336] [-0.20611494155568105:4.851661856497941] [-0.7620742520485575:1.3140213233151354] [-0.19457056808871417:19.640327766107355] [-0.44269660417570172:7.8688774837504871] [-0.47957193735023934:2.0891644931436844] [-0.20391790225183085:13.679055539432124] [-0.20550044032953055:34.787981384239956] [-0.35097614985503667:4.1015290649317233] [-0.18054654089815811:10.548527858646288] [-0.36504969569248841:8.0952990428894989] [-2.4171504230131058:0.45067155164896738] [-1.6931652366581265:0.59276849111014873] [-0.72327598081437627:10.818466837446964] [-1.8741825882206891:0.57039631067905361] [-1.2808957703015749:0.78070364754546606] [-0.20818845144660961:18.215536732880036] [-0.46258184760512039:6.3606945251108371] [-0.11782802705333928:8.4869451267932483] [-0.21000192606796805:17.782017174100066] [-1.5326806987657779:3.906349719895359] [-0.27238091282802052:6.8156559080340049] [-0.054995789890326559:18.183210060155787] [-0.18721241498979169:19.678480948279887] [-0.01123681187326105:88.993213669402365] [-7.4959632643011815:0.13957680354522298] [-0.38639983679038692:7.289787626283851] [-1.8658280793848674:0.62994070773218924] [-1.6745561100159621:5.4428950502968965] [-0.67676386669186095:1.4776202590250138] [-0.44508212201777037:10.603323213959458] [-0.40183904199392484:5.379645069704031] [-1.868805500389797:0.53811059430184316] [-0.25814036091787546:7.1544201548743178] [-1.5169021650893624:3.0605718026104682] [-0.33062143876230404:3.0246072479254336] [-0.20497985651681946:18.964499640999446] [-0.2109086536234614:17.731158447258078] [-0.25221098829127192:7.9776695043096533] [-0.091190258808455979:10.966083582463424] [-0.30957273582662598:8.5113919520046437] [-0.18034700949777932:26.853628590621486] [-0.42898002445822347:7.4878644327508557] [-0.39208512732317069:11.040803574099236] [-0.36720447719555666:7.4950585616097793] [-0.63518058608548122:3.3143564841800983] [-0.048637257069031367:20.560772375489538] [-0.68904081014419871:3.7190335042794356] [-0.12900111581214788:9.6138767619987089] [-0.18947653459795716:21.986270069110006] [-0.21925010429178571:21.454150396851851] [-0.29972538391812448:21.978891609313731] [-2.0863850155236308:0.47930481092993832] [-0.18002141019339005:5.5548948257084403] [-0.045252832154025466:31.903560831922317] [-1.197864870415698:3.4001403432030552] [-0.68209388241550806:12.52454643729188] [-0.62458203695883929:1.8994024128084019] [-0.18504693948880746:31.268571136497339] [-0.3697379793042358:5.5108533483556075] [-0.35633838870101497:15.37203477256514] [-0.80113992100811315:4.4060324785593608] [-1.957786732334545:0.59919885245463933] [-0.39217270384821351:25.795430730493724] [-0.31029319793629173:3.2227583674113189] [-0.049403120646731635:47.352804941428758] [-1.5695443586154214:4.8086309048995606] [-0.72363561966899315:9.6883634802163261] [-0.17341071041540723:26.628202695483104] [-0.45356780239959887:3.2404657267879888] [-0.10774568396262092:18.622490554650316] [-0.16143058969432741:8.6873135923444487] [-1.0999027400033705:0.90917129636110872] [-0.22589229391726098:18.660564583100992] [-0.014873717455538504:73.431681382820216] [-0.23129561949531141:27.010751541497431] [-1.8472537879480651:0.63772445265127664] [-2.2493588565588114:0.47483480229388852] [-0.20942724618292397:7.4692056234939281] [-0.49917037756486893:5.6765936286433289] [-0.76537141668481701:1.3065551942499631] [-0.66732890829115543:21.916586449504187] [-0.65242851713163885:3.2811138818511068] [-0.1104321781128178:9.0553316713394842] [-0.20353143283418035:5.4508284556784554] [-1.5805972236560497:0.76969390330435372] [-16.004369018175062:0.071494051865867755] [-4.5380623045680712:4.1351643557045561] [-0.88345129841789971:3.7814613737064282] [-0.20239659586062136:30.031807837775339] [-0.26210784518113367:3.8152234600568122] [-0.11351300868821364:17.702346838397602] [-33.100220480358146:0.037148371206304924] [-0.095885874368156071:29.141326485379597] [-0.25286506560672745:7.8005828424512726] [-0.46695468896372577:15.005515678095355] [-0.23935142912172525:7.7435129732589942] [-0.14112590498049885:11.962997155861256] [-0.9546746298246368:3.329623566172383] [-1.3292846187432952:5.7075232325707903] [-1.0031546955000092:4.2682514754692997] [-0.35755940339162667:8.3674230331440835] [-0.029204948861297569:41.19894551046567] [-0.15612157086072098:15.431458065979045] [-0.14490904103127694:9.7699287642881494] [-0.41972834662652203:6.7580033099240646] [-0.49624061185608809:2.0151514731124114] [-0.7075756426810057:4.2085754611193948] [-0.22615503506010587:24.780698643677908] [-0.023960233526332485:119.54790032592838] [-0.25143846077716991:7.8976938983699672] [-0.43628667073118527:6.8082486595912153] [-0.3477012993146727:3.197148800923912] [-0.26494664069641033:4.2814501576289832] [-0.29103975080478112:6.939817651623029] [-0.17201344514232977:28.075610379095856] [-0.14279253816488605:9.7328915947365306] [-0.24897266989876241:5.382582842388711] [-1.1301866538809584:3.1810117672724787] [-0.48108471969510541:3.9346296375241154] [-1.8887891928046756:0.77926601907606863] [-0.20314766164763984:18.737632885897842] [-0.74366537883662731:1.3446908091437266] [-0.22756104399539479:12.796002721494869] [-0.61940942831309243:9.9005491980662743] [-0.26705963009893918:4.39000951453336] [-0.25584531185437936:8.8721374109594606] [-0.33921713668827974:19.297470575296924] [-3.0554120994048382:3.4911990881622827] [-0.57655280022413469:8.5235730927897677] [-0.14161494309486444:9.5994440247543356] [-0.20697173135876945:18.723947153135224] [-0.45528885614962977:19.687269609095878] [-0.30362002003024147:10.020061800387303] [-0.057643016774235133:17.282948642559472] [-0.14421580832875991:9.7570892307201174] [-0.51634726137492892:18.981121314946591] [-0.02255222234832558:50.214221191136787] [-1.8071679548970518:0.59427422258518459] [-0.5446546471863245:2.7709516545505997] [-2.9013077740223499:9.0694501402724494] [-0.5156884413162911:6.3843124949590591] [-0.36204591239060896:2.7620837372708467] [-3.2255629379547908:0.31448506859346759] [-0.14141129726922244:15.897974778558282] [-0.10049604989409008:15.59809391219108] [-0.23225460658444783:8.3403326640168789] [-0.16910058245976059:8.5647998474767455] [-0.38038887568088664:8.2056644767999529] [-0.32499809186271778:24.578889920421833] [-9.5162090356101974:0.11592676778376443] [-1.2386330611248451:0.80734160211407957] [-0.21948967343540868:19.901189714391016] [-0.42977447387248002:3.4815734543681809] [-0.3699211086069551:2.7032821583327187] [-0.071788839343743874:20.853135868037086] [-0.32798718435567764:25.953223648464117] [-1.4333159689072776:3.0643549018135401] [-0.34787470013340843:21.551000593965728] [-0.62389485915222509:3.1218705451294761] [-0.70980852560475483:9.0012071922508259] [-0.27327486055553163:5.2009659295949238] [-0.14112564421365134:15.153762488055373] [-0.34635896762810803:2.8871780247183247] [-0.21310447926157441:28.899517912203137] [-0.42113110642996932:5.598917133477844] [-0.89038545668493596:3.9558403777898086] [-0.96196039574745118:10.01213419790569] [-0.62074183850966747:3.2877605710127482] [-0.16872806405591015:30.188662640191001] [-0.70302969627126:3.0419042938082743] [-0.22640585223812279:13.311528269122464] [-0.056472237213187525:47.215497497665197] [-0.44005624519284886:15.910949709852019] [-2.3510493182045211:0.42534199187437405] [-0.23254779398210346:12.542072316024596] [-0.032749167658765059:34.00341078948582] [-3.1810051517187752:0.35539713274831136] [-0.3132213353095995:7.4834845337309561] [-0.14957436961501469:6.6856374028108743] [-1.0976090999032229:6.3909461768969917] [-3.3516633241881415:3.5315713686402534] [-0.15992395034638388:12.727429317628259] [-0.58139967186970898:9.5359071959207213] [-0.14731241301028042:33.247298683238263] [-0.674792072362426:22.074587608992744] [-0.41501190492681783:6.5258116710669682] [-0.1639788817646626:17.909008431862681] [-0.46236318875852706:2.2183821305037803] [-0.52944385598825405:10.66838257588166] [-0.31187765948437551:9.2707212415987144] [-0.34884978186915194:6.7461675267667633] [-0.77465631435026516:3.9651690104543191] [-0.19976415922309901:19.453775940310436] [-0.14615680712370657:28.752865856980414] [-1.8113082390127302:1.1354555068270018] [-1.4665864265456023:0.68185548556821129] [-0.53408752520760205:14.31148475546464] [-0.1066042894088057:26.416274150333866] [-0.37877444457452036:10.668968304760067] [-0.17742065112016878:6.3775710884008801] [-0.72006088932230761:4.6139578960284959] [-0.35634378980392767:5.8693511456631802] [-0.59084542441783383:2.0337506562954215] [-2.0180278730356949:0.51897559594194098] [-0.79968983130084137:4.1750802189932479] [-0.95492480692395809:1.0472028716284381] [-0.13297947246637107:10.079081512397391] [-0.33148439907125826:21.300609885804509] [-0.14271890104329091:7.0067804102322144] [-8.7523714489087467:0.20382722181042284] [-0.42498094099566414:11.097797432029344] [-1.8904376549778938:0.56464385564450148] [-5.6456616875276957:5.7691384164878459] [-0.53955016627927976:4.974474695071466] [-0.70827449238638718:1.4118819903152271] [-4.7474237255299903:0.29763536303802379] [-0.13242607094523706:20.472799347009854] [-0.55589999849298677:24.3370383988449] [-0.33951909568327415:8.7359772422326483] [-0.20663197657748583:9.7122637419197595] [-0.20762700086804833:10.284182120439635] [-0.49612544634337241:5.987585361051841] [-1.674253201623487:0.73857271553705695] [-0.54796527099073733:23.271022348301251] [-0.23061642316082398:10.788118353732582] [-0.08093284281503782:12.354331098035843] [-0.81076431300193097:7.7032124998143345] [-0.20276166649239241:7.565274634936098] [-0.26396017979020286:7.2257837123705437] [-0.48929980456838468:2.3099949149624042] [-1.7641647508724261:0.83525225346740306] [-0.28838301051055493:8.2017445276492555] [-0.20170497043836919:20.408462273343364] [-1.10881938095806:0.90186013806501497] [-0.48102462962727571:5.8325666765337481] [-0.37614693170255709:26.654690024728641] [-14.127981682118604:0.082233727116834604] [-0.51390045231743042:24.074790544630769] [-0.26946523082261731:6.2053405797767054] [-0.1675788279438063:15.386191675927748] [-0.47519826958036793:26.963126897355327] [-0.1621709819053323:9.3468448311638639] [-0.42185810881187075:3.6921316464294192] [-0.15097921240552387:13.584977400159639] [-0.20602644790288693:33.924555228478546] [-0.1395777145463824:16.846271370228344] [-4.8695850357927162:4.9672534404248445] [-0.15322423615136591:13.191787658814921] [-1.4164975044180832:6.5702516596331586] [-0.16358926602283216:14.479332840961852] [-0.60671950305007083:15.624943173708024] [-0.4482121221058728:9.0656671165641853] [-0.8154582449837241:3.8095937911960402] [-0.74343526909047808:4.1569544418946265] [-0.32909022108355201:19.110553645609706] [-0.055068154104649235:18.159315783486058] [-0.4470162867994828:4.7460972233170322] [-0.14440261605287597:10.107470476134285] [-0.25515308213449606:3.9192158355856379] [-0.78245892094296454:10.04519250470544] [-0.16050620004758787:16.954549874368499] [-0.46068945437012054:4.5795999763534398] [-0.35270476723199967:31.378284308963522] [-0.31632029850197652:3.6635595613755796] [-0.37215568842032409:26.124964122931285] [-0.21483398773065568:18.126451042328146] [-0.32248013967037842:5.0979424917000316] [-0.40611281953348882:26.570875612213644] [-0.38465172048901991:9.1099809004986909] [-0.15913230890558688:16.574626902880315] [-0.49870089016233587:10.371548185809958] [-0.76831045874970738:2.2228174376725889] [-0.4443990600169101:19.132207920141813] [-0.54390039042156813:5.9585148189228656] [-0.37922940992613441:13.51979924126106] [-0.27811234903541415:28.714616123977287] [-0.53140887137862658:4.6289895594203641] [-0.018134445458969903:55.143676836578756] [-0.16859957532034892:8.9059901512011859] [-0.34083812166092453:25.341887351493288] [-7.7933817484953316:7.6726947978453852] [-0.45053263996362414:24.466701859051295] [-0.17351519299381701:16.191440716797928] [-0.53223797663067229:7.0676407139776289] [-0.43779135850972267:13.700897464996462] [-0.13705052365270404:13.637655283632249] [-0.24691213214688129:4.4818276359803413] [-0.37417091386605228:24.157078439691801] [-0.741074370736716:6.4083252670582374] [-0.70664288262191643:13.227652550626427] [-0.1804734607531302:27.299687396808199] [-0.12886440030162624:20.33098944650056] [-0.16927330846511388:9.4858627205994512] [-0.20028245534557887:27.911500049970503] [-0.30120242040231376:9.1396397378545569] [-0.68333167333763278:17.254380924812835] [-0.22256966573396117:4.5375575677645896] [-0.54344430028064128:4.6568165129376276] [-0.11680412769148495:17.223865871522705] [-2.325784554156312:6.1179120079000313] [-0.23184283057126251:4.4452956358964411] [-0.47363234170489577:9.8441947095997264] [-0.42529989073263275:5.4568140708857884] [-0.50624769232057198:5.0671358477834563] [-0.32031793134392739:6.858211139225542] [-0.055982194606691689:22.858583936999551] [-1.5569740106178576:3.08638478946474] [-0.29704107290358128:12.23445163790849] [-0.33565640686184384:7.5117115319252141] [-1.3056925150426339:4.2512853051924822] [-0.27379757029501867:5.1460862664566251] [-0.41437795040163533:16.647330095746337] [-0.3603432134883145:24.451058400006012] [-0.38607479906279379:5.8835138285107851] [-0.70218877175443906:1.7549485932542586] [-0.5860731222657517:5.4938929741915681] [-0.71170069042087569:2.3168233475407956] [-9.6334472338534205:0.13000742551826658] [-0.44644695742085377:5.7183243335752678] [-0.38254035300098937:21.667119601917875] [-0.32119841511559871:16.509734037734386] [-0.65603076379937519:6.1702236230081331] [-1.5971072537149824:7.1897618130844432] [-0.33520591267924577:27.095026621146342] [-0.26435461863282417:8.0278228792600288] [-0.71670830135938035:4.2829695651106361] [-0.1380726573300308:11.36283053672102] [-0.16462998755214026:13.193423287398847] [-0.14857633607298348:11.483602580199205] [-0.55137216474986994:7.4076885036185374] [-0.32715249075649544:14.833587612326919] [-0.24069984616846613:6.5198556171380062] [-0.53679778464129513:23.946038839004672] [-0.21446942448987591:22.390871809653166] [-0.45767794816263047:3.5769238929903953] [-5.5179961207904231:5.6387877864653095] [-0.36104586364362767:5.5081868407723489] [-17.149031858474707:0.096138230502277586] [-0.48467516698686641:5.7329507562695579] [-3.0571547051499595:0.47647896805960038] [-0.40106658290949199:3.8834831362170963] [-0.74243726550046329:4.2440742804525424] [-0.47752899895767165:12.149794470435257] [-0.12682917857962067:15.321304631361995] [-0.29692455934858303:7.2245143886976777] [-4.3490485285013643:4.0248840010025493] [-0.60918049138328489:18.08950043946118] [-3.320670109788614:3.4689326939393319] [-0.14864552807082665:13.522789731082788] [-0.33262336692761668:6.4607691247577899] [-0.18592385083273591:25.096330058186247] [-3.4854107360789519:10.068448715250016] [-0.47820816738386351:36.888006987461139] [-0.18238430931222122:13.628741984590338] [-0.57486235139937236:7.6552109528844152] [-0.48884247144449017:7.6113960106825802] [-0.40591453898249558:20.698150384208905] [-27.437565280576177:27.415281311648087] [-6.210825296056913:6.3606771970490996] [-3.7381701549533881:4.0758393640629755] [-25.131893891214343:2.7834379908986966] [-2.1300929572992451:2.7225099533077817] [-0.11563305916458275:14.582455664851423] [-0.66233132681991669:22.808403522104527] [-0.11689855253408084:11.89463336761942] [-4.3844575296779436:4.0145185532439891] [-0.34103426361955946:9.1363547398577509] [-0.41253890741891724:7.6392589327862819] [-0.39073132951337175:19.068660985914899] [-0.4927867098374793:5.7544928074154775] [-0.23759966135594435:5.4958964274685922] [-0.30822917412982276:6.8166456319019781] [-0.67245323294717063:2.420804744450177] [-0.25650977185388751:4.559011420007363] [-0.12292275194322567:13.83631850213748] [-0.14965600099922297:12.692003614845413] [-0.79683887352254246:7.3165443916016395] [-0.033283603835679805:41.517130979014595] [-0.15725728208842696:9.7385463770124279] [-0.22722620370249211:7.3375246478161795] [-0.089151844101734767:17.019426852422125] [-3.8349331943795688:0.31462700229108403] [-0.48108472763151083:2.5093803017551557] [-0.18590820078034287:9.3771254238304227] [-0.075811789892193809:13.190560484352439] [-0.096644185961102774:21.86655696674201] [-8.0768623681706551:33.97460336618105] [-78.616698709411935:0.013175964415829361] [-0.28553405699035855:18.358628641271427] [-0.12698956074128692:7.8746630365725991] [-4.1318145454871553:2.3319601456533241] [-0.23042404169165967:17.676564412099189] [-0.047663572217478647:20.980382994317218] [-0.10071717829610249:9.9271288250495093] [-0.23700060270013287:5.1268917281885553] [-0.38066591564852154:9.1000545761273912] [-0.13029478720340898:7.6749041267388227] [-0.46563385295456949:6.3074171717929106] [-1.265040098223345:5.0268266074091645] [-3.3006059093344131:3.4477508373392278] [-5.5413967083017894:0.18082047343821153] [-0.54355367627345419:4.3862918563394837] [-0.02242875698140602:87.079540102847787] [-0.33640517998317138:26.054654010609166] [-0.5199279428758139:3.3954398496037972] [-0.73411912782174771:8.4715702768884036] [-0.21896104336287631:7.0306044581118936] [-0.19411857429849791:14.848683311489836] [-5.4894149759688364:5.5972652275003023] [-8.199093059623932:8.2820182741996238] [-0.061003353452794319:21.424842144253446] [-1.3562640329285596:8.264609255489237] [-0.066002998924847636:15.150826724382963] [-0.49603651177126612:2.0159806310006512] [-0.072421939260357768:18.39422038588598] [-0.30504987774618997:10.201935071270581] [-0.21374132814468935:7.1290084864505765] [-0.16696758308630352:29.882974331327791] [-0.76256293459711932:7.1676098272176416] [-0.12406562615941004:19.848712344477541] [-2.5660634258694888:2.9465628596039695] [-12.724708701405149:8.0228170320598817] [-0.12863616673294603:14.600734900396848] [-1.9842007407543152:0.50398126533298204] [-0.25459849146910202:5.7265915364856177] [-6.4336520074604291:6.5609462285084339] [-0.13286148609568807:10.471490652438421] [-4.4124967159382891:4.6080167911120054] [-6.4480725576466105:6.6519193483640588] [-0.057685585657411789:22.489247845547226] [-1.0085507497397435:18.236449762224069] [-10.631571537083381:10.80221513264846] [-0.069023598762725291:14.487798635906932] [-0.13392700081329467:13.997265499401426] [-6.9992416962747326:6.9768827097076489] [-0.13182107445338312:7.5860404275011311] [-2.9191382685521732:0.51799565482042553] [-2.1913946970240294:2.6356107732462748] [-1.1276851987556413:6.3413829438175933] [-0.051704718293492047:19.340594688548347] [-6.526621763180275:6.7295124202468699] [-0.034871653883212651:48.603089132915123] [-19.648823320454202:19.650861991629768] [-0.47311472567047841:2.89755056284499] [-0.25511417622743715:3.9198135312891775] [-6.1593568410802728:6.3152670501618413] [-0.062330049621205801:16.043625924850577] [-0.06407773878314596:15.606043830357908] [-0.18239829064598093:15.363401284597822] [-0.086872489299681763:34.571060837919511] [-4.3505193699779241:8.5015531542588203] [-0.16610135652059185:6.1253849994546261] [-0.2188254982158927:6.938051760098789] [-14.201064452075617:14.317652381226184] [-10.9115897232757:10.794425476784708] [-0.18661782838921834:5.3585448326745935] [-0.11988786792073731:8.4006748674214275] [-0.16941686378514062:5.9026001170003308] [-0.035892519575768424:41.352022430061112] [-0.20714951651404484:7.3627597796794859] [-0.11010969760548393:11.912604892095677] [-0.19677174809467876:5.0819123642547472] [-0.0020412457049189753:489.89692793484915] [-0.038806418823090175:26.013055168705975] [-0.045729065186505817:35.341284869597132] [-0.11550164235137489:8.6578855472707215] [-0.016944217950318377:114.06382471054806] [-0.21861047814605225:6.9538127172441548] [-17.744201282933087:17.707287420320821] [-24.177651483342967:48.29593502040828] [-0.035759143735352841:27.964875428808472]
tree_sizes=4863 3167 6786 6814 6934 5809 2421 6917 6976 6991 5270 1334 6940 6994 7019 4419 2261 6965 7040 7043 4113 2274 7007 7039 7056 3838 1712 6984 7051 7044 4332 1897 7016 7084 7077 5098 2588 7047 7075 7090 3915 2117 7039 7083 7087 4761 1912 7034 7053 7072 4399 2652 7020 7054 7084 3132 4161 7026 7091 7053 4516 3802 7059 7076 7104 4577 3268 7073 7118 7080 4843 2366 7043 7105 7085 3391 2346 7046 7073 7091 3034 1805 7042 7067 7106 3376 2324 7059 7096 7083 2939 2337 7055 7038 7080 5143 2366 7081 7095 7093 3581 2216 7061 7095 7136 3884 3254 7031 7119 7083 3048 1794 7063 7055 7113 3141 1569 7049 7119 7107 2646 1145 6404 7124 7126 2825 1151 7084 7128 7115 3106 1033 6993 7129 7084 2925 1147 7079 7118 7097 2313 1026 7046 7081 7105 2347 1473 7078 7042 7040 2350 919 7096 7122 6653 1901 1128 7054 7076 7117 2130 1818 7036 6975 7058 2680 2009 6996 7000 7145 1916 1365 6730 7098 7124 2955 1387 4193 4318 4656 2121 1238 6961 5519 7012 1594 1600 5361 5291 5069 1719 1484 5790 7068 6637 1805 2043 6595 6822 7126 1367 1263 6948 5921 6214 3292 1141 6312 6057 5910 1691 1146 4749 4857 4611 1363 1024 6998 5229 5057 1031 1281 5631 6501 6611 1576 813 5916 5564 4661 2757 484 6107 5750 6876 1910 1071 6164 7085 7035 2223 826 7058 7064 7122 1463 230 6952 7071 7099 1884 230 6378 7087 7100 1884 230 6868 7062 7101 1995 230 6218 6983 7103 1665 230 6729 5920 6963 2621 230 6165 7094 6954 2870 230 6772 7091 7046 1679 230 7061 6993 7115 1244 230 6982 6810 6569 1897 230 7060 6358 7058 1533 230 6830 6842 6775 2427 230 6891 7102 6813 1456 230 6219 7083 7088 2665 230 7072 6155 7120 1234 230 6760 7077 7037 1787 230 6216 6961 6991 1812 230 6778 6989 7049 1355 230 6272 7006 6941 2109 230 6053 5678 5470 1024 230 5929 5399 5449 1593 230 6758 3984 3785 2874 230 6721 6951 6941 2221 230 6523 5493 7071 1902 230 7039 7049 7091 3598 230 6137 6943 6699 1350 230 6414 7043 7000 2411 230 7062 6237 6533 1900 230 5233 5891 5421 1583 230 5783 5014 6441 2226 230 6193 5636 6475 2019 230 5671 6283 7096 1675 230 6601 6700 7058 1688 230 6411 5926 6639 1573 230 6575 6595 7093 1238 230 5934 6605 6406 2319 230 4888 6485 6038 2956 230 6656 6449 6449 2222 230 6368 6506 5801 2202 230 6674 4153 7041 1656 230 6830 5591 6922 1451 230 4821 4823 3992 1791 230 6437 5146 5051 2543 230 6378 4507 5604 2529 230 4478 3973 4111 1916 230 6787 4957 5036 1784 230 6276 4479 5050 1451 230 6494 5438 6493 2742 230 5240 4553 5016 1364 230 6621 4479 4697 1380 230 4395 4492 5141 1336 230 5393 4544 5137

Tree=0
num_leaves=45
num_cat=0
split_feature=10 60 250 85 24 31 160 358 490 524 116 10 224 112 279 154 221 565 604 205 145 385 491 423 360 460 177 364 537 14 179 31 18 312 413 526 460 57 19 224 550 105 56 60
split_gain=59518.5 83838.3 32250.2 19785.7 22444.9 14773.3 12081.6 10372.8 8718.14 9536.86 8128.27 8009.32 20217.3 31588.9 8666.12 8415.62 7862.23 6656.55 6335.23 6304.8 17030.1 6150.73 7320.07 5303 5239.06 3400.6 3040.95 2646.79 4550.59 2024.79 1546.22 1136.69 1112.45 5688.31 740.276 705.761 677.175 538.803 258.055 4591.47 241.878 1384.42 176.439 96.0453
threshold=4.2002911318743488 3.1414517429194952 5.3886206713882405 4.8974935286331531 1.0000000180025095e-35 2.9330010009116938 3.2439844721076105 6.15572557669097 5.4069760751400695 2.7121370592771616 6.91728198074573 3.4536327914787135 2.3657474725020831 7.0067455973873747 4.2624130040277928 -0.21768310905295393 -2.0863270693632714 0.26609892182148565 0.18905235171469256 0.58624078936626722 3.2147268669116897 1.0000000180025095e-35 1.3311554907550018 0.11152589977530282 4.6176623341759901 12.643750849365533 3.546892070383425 0.56877017108859196 4.3342559440339032 3.0506287300531687 7.1888331066128588 3.006637726295597 -2.355562345428337 0.30751536843334654 10.023135667569653 5.9665724028449914 8.7965084302060514 2.7840087092839587 10.84122823958605 2.2892752539490329 12.973369615661271 0.62142062185171831 3.6468101779378004 2.9355896522936162
decision_type=2 2 2 2 2 2 2 2 2 2 2 2 2 2 2 2 2 2 2 2 2 2 2 2 2 2 2 2 2 2 2 2 2 2 2 2 2 2 2 2 2 2 2 2
left_child=11 5 8 19 6 26 -5 21 27 18 -9 34 29 14 24 -15 -16 -6 -10 20 -4 22 -7 -12 -14 -23 32 28 -3 30 31 -13 33 -2 38 -29 -21 -34 40 43 42 -42 -1 -40
right_child=1 2 3 4 17 7 -8 10 9 -11 23 12 13 15 16 -17 -18 -19 -20 36 -22 25 -24 -25 -26 -27 -28 35 -30 -31 -32 -33 37 -35 -36 -37 -38 -39 39 -41 41 -43 -44 -45
leaf_value=-7.8886368538592384 69.395119430336408 9.1528110232793569 27.199349142329552 75.032624479082898 95.157206455363536 12.366225930516803 -7.8911416447125315 130.36539205622105 11.859791741136744 108.29081944851369 -7.8911416447125315 -7.7040418623801683 0.25799482284755548 60.80775708867214 110.61445867037339 181.03082987209356 19.683213406960455 189.61819221377399 87.205945027889726 -7.8911416447125333 128.84608948808551 2.9195343180026949 112.33193113870952 56.090755239023842 45.284448240265377 55.3118451900012 32.623593505746371 -5.6467173963205521 69.701810942548306 26.963446683255555 23.965202526010835 0.29294677483836473 -7.8369701324090535 -6.3834368060980839 16.797525087599467 21.735258434058949 21.735258434058949 -3.0374151037665245 -7.891141644712536 45.975040316692251 -6.3277432236690316 31.610725126982778 -6.9555451991100865 1.9843250482112982
leaf_weight=958.16384634183487 0.011645019461867689 0.09974212321685616 0.099742123216856271 0.1326519608264789 0.011645019461866468 0.019745902565773576 0.020252207759767771 0.010126103879883885 0.060756623279303312 0.017214376595802605 0.020252207759767771 5.879215912660583 1.3989212510059585 0.011645019461866357 0.010126103879883885 0.011645019461866468 0.15594199975021172 0.020758512953761965 0.013670240237843245 0.032403532415628433 0.019745902565773576 0.58275727828731749 0.011645019461866468 0.035947668773587793 0.026327870087697991 0.012657629849854857 0.019745902565773465 0.13366457121446729 0.01417654543183744 0.017214376595802494 0.015695461013819911 0.18328248022589821 1.8459887373028321 0.066325980413239449 0.012151324655859663 0.010126103879883885 0.010126103879883885 0.26783544762292866 0.35897038254188274 0.016708071401808411 0.19188966852379863 0.010126103879883885 2.0307901331107123 0.010126103879883885
leaf_count=1892463 23 197 197 262 23 39 40 20 120 34 40 11612 2763 23 20 23 308 41 27 64 39 1151 23 71 52 25 39 264 28 34 31 362 3646 131 24 20 20 529 709 33 379 20 4011 20
internal_value=-7.81111 5.02069 36.1753 57.7534 80.0707 -2.45163 64.0493 10.2872 14.7222 41.2134 47.8939 -7.85882 -4.64861 5.30092 3.60877 120.919 25.2278 155.671 25.6989 32.2279 43.9969 6.30783 49.4503 33.0342 1.08974 4.03332 -6.44419 5.30202 16.6878 -7.28413 -7.38112 -7.46228 -6.79615 4.93414 -7.88458 -3.71841 -0.837237 -7.22883 -7.8849 -5.29916 -7.88594 -4.42607 -7.88666 -7.62021
internal_weight=972.106 3.60135 0.696676 0.347325 0.185308 2.90467 0.152904 0.693132 0.349351 0.0916412 0.066326 968.505 7.71002 1.61461 1.59132 0.02329 0.166068 0.0324035 0.0744269 0.162018 0.119488 0.626806 0.0313909 0.0561999 1.42525 0.595415 2.21154 0.257709 0.113919 6.09541 6.07819 6.0625 2.1918 0.077971 960.795 0.143791 0.0425296 2.11382 960.782 0.385805 960.397 0.202016 960.195 0.369096
internal_count=1920000 7113 1376 686 366 5737 302 1369 690 181 131 1912887 15228 3189 3143 46 328 64 147 320 236 1238 62 111 2815 1176 4368 509 225 12039 12005 11974 4329 154 1897659 284 84 4175 1897635 762 1896873 399 1896474 729
is_linear=0
shrinkage=1


Tree=1
num_leaves=28
num_cat=0
split_feature=10 277 482 154 225 261 609 76 208 121 396 192 190 356 334 396 20 174 39 599 199 0 0 4 15 0 0
split_gain=10203 18977.2 50349.7 104229 49015.8 11009.2 9257.58 13812 6165.99 35498.8 4998.14 1893.46 18180.5 1181.96 15512.5 908.874 9343.76 5355.87 626.255 580.578 199.202 1.73472e-18 1.73472e-18 8.67362e-19 8.67362e-19 4.33681e-19 4.33681e-19
threshold=4.2002911318743488 5.0111767447869804 4.0519906629215159 0.18106326948418941 2.5482855251380907 1.0000000180025095e-35 1.0000000180025095e-35 2.4270443206795198 1.0000000180025095e-35 1.5701054133816263 5.8689760211513047 14.343654775323319 4.0913716626050993 9.8622184384443354 3.6834472389617225 5.184024426870514 8.1221427978809277 2.0878933689819257 1.2470814229596414 21.735673867231565 8.8243426937597373 0.68140105639087589 1.3337650026806935 -0.014322523833383926 0.60234322362521731 -0.053889152438327849 1.0204002055117956
decision_type=2 2 2 2 2 2 2 2 2 2 2 2 2 2 2 2 2 2 2 2 2 2 2 2 2 2 2
left_child=11 5 21 25 -5 -2 8 -8 10 -10 -7 13 18 15 -15 19 17 -17 -13 20 -1 23 -20 24 -3 -4 -23
right_child=1 2 3 4 -6 6 7 -9 9 -11 -12 12 -14 14 -16 16 -18 -19 22 -21 -22 26 -24 -25 -26 -27 -28
leaf_value=-9.7952093705479424 228.72070451168312 -9.8029084098907759 -9.8029084098907671 1135.1104336134815 354.48770041573823 -5.5885773407586026 390.91676129827704 -9.8029084098907617 -9.8029084098907902 524.48998453433262 45.642580480581714 56.983703208181723 324.13014968028619 -9.8029084098908008 324.13014968024908 -7.6071841923103349 186.62830223142191 103.39473840037604 -9.8029084098907973 48.272406040607052 10.13339356565324 -9.8029084098907653 -9.8029084098907688 -9.8029084098907653 -9.8029084098907884 -9.8029084098907653 -9.8029084098907671
leaf_weight=142.87496705687226 0.0020962285052519283 0.0031443427578778937 0.0023208244165289216 0.0015721713789389469 0.0016470366826979443 0.47457116052828396 0.0014973060751799485 0.0020213632014929317 0.0073367997683817521 0.0014973060751799494 0.01983930549613433 0.0014973060751789493 0.0017967672902159384 0.019614709584856338 0.0014973060751799485 0.27325835872033977 0.0025454203278059131 0.0044170529217808499 0.020063901407411322 0.0017219019864559417 0.0050159753518518304 0.0021710938090109258 0.0024705550240469156 0.0021710938090109275 0.0061389549082377926 0.0021710938090109258 0.0023208244165289216
leaf_count=1908427 28 42 31 21 22 6339 20 27 98 20 265 20 24 262 20 3650 34 59 268 23 67 29 33 29 82 29 31
internal_value=-9.7229 4.09336 91.6451 301.436 735.722 0.0229871 -0.923022 160.716 -2.0532 80.7552 -3.53281 -9.77428 17.2989 -9.77916 13.8803 -9.78265 -4.09313 -5.84145 -5.64175 -9.79381 -9.79451 -9.80291 -9.80291 -9.80291 -9.80291 -9.80291 -9.80291
internal_weight=143.741 0.532517 0.0236574 0.00771113 0.00321921 0.508859 0.506763 0.00351867 0.503245 0.00883411 0.49441 143.209 0.0258285 143.183 0.021112 143.162 0.280221 0.277675 0.0240318 142.882 142.88 0.0159463 0.0225345 0.0114544 0.0092833 0.00449192 0.00449192
internal_count=1920000 7113 316 103 43 6797 6769 47 6722 118 6604 1912887 345 1912542 282 1912260 3743 3709 321 1908517 1908494 213 301 153 124 60 60
is_linear=0
shrinkage=1


Tree=2
num_leaves=63
num_cat=0
split_feature=1 10 1 18 12 18 3 12 4 1 13 2 18 13 7 2 1 14 18 18 1 13 18 34 57 3 2 13 18 31 60 13 13 1 13 7 34 3 50 18 10 18 56 6 34 1 5 6 7 15 45 57 7 14 12 19 7 5 9 27 194 57
split_gain=426097 42565.4 30415.6 17420.4 14639.3 14298.7 12984.1 7043.43 6545.29 6477.96 4923.18 4895.59 4069.34 3931.56 4127.11 3608.67 3394.86 2441.27 2363.26 2258.18 2019.02 1957.62 1914.7 1886.86 1845.06 1831.77 1713.73 1688.25 1488.79 1433.68 1405.25 1356.06 1192.42 1166.96 1105.92 1067.48 1019.84 987.536 926.927 920.819 903.177 897.653 887.888 819.937 814.892 751.493 706.879 563.893 532.342 486.641 474.9 450.737 450.267 422.596 419.945 383.057 368.444 366.241 322.923 268.077 247.677 233.139
threshold=1.7992599404668821 2.6885069623782711 0.92106477910252893 -0.36264212136681079 5.6397422537657613 -0.8505354542283462 1.0340616427543354 3.6860703854580055 0.51513118982850647 2.494054351134285 -0.17461539350431604 1.9119806068445702 0.30552366329780051 0.20891657258145954 2.3838246922387749 2.0067614476294646 1.4087617850177467 0.55098804991865447 -0.36760374848065691 -0.033520856148351298 2.494054351134285 -0.50687117984239982 -0.86045870845603845 2.175733787605354 0.33088881191509839 0.67597290048393777 1.7036884257863385 -0.53909202252169253 -0.3609882456621954 -0.038865260520572924 -0.46494989406203951 -0.46841404503163103 -0.19852118000830746 1.5069539084082997 -0.51483977534373027 2.6000712243235324 0.096733363880710563 0.11326201977331278 2.2233664515903904 -0.69837888940373172 2.1919710526833165 0.30221591188856978 3.1620255609611334 0.43598495080326743 0.61935200707212101 2.6201290644760573 1.4110952661369132 -0.38813522131512185 6.0371435083245304 0.55595996096010658 -0.95202071410166067 0.46873160733384917 6.4750947181356073 0.74433042296773289 1.3157382195176044 7.0817369928131813 6.2975750289362207 3.2739987574525524 1.0805955097866493 4.0255280330582641 0.12822275186888885 0.27265121201578119
decision_type=2 2 2 2 2 2 2 2 2 2 2 2 2 2 2 2 2 2 2 2 2 2 2 2 2 2 2 2 2 2 2 2 2 2 2 2 2 2 2 2 2 2 2 2 2 2 2 2 2 2 2 2 2 2 2 2 2 2 2 2 2 2
left_child=2 3 4 11 13 8 12 24 16 17 28 21 20 35 22 27 32 36 -16 56 53 51 -15 38 43 54 -18 61 48 -29 -23 40 -4 -26 -27 49 -8 55 -11 -37 -13 58 -25 -7 -19 -39 -10 -33 -6 -1 -22 -2 -21 -3 -17 -14 -12 -30 -9 -48 -43 -5
right_child=1 6 5 15 10 7 9 41 46 23 19 31 37 14 18 25 26 44 -20 52 50 30 -24 42 33 34 -28 29 57 -31 -32 47 -34 -35 -36 39 -38 45 -40 -41 -42 60 -44 -45 -46 -47 59 -49 -50 -51 -52 -53 -54 -55 -56 -57 -58 -59 -60 -61 -62 -63
leaf_value=-3.0141882417335104 -2.7634174249525847 -2.6336504634860987 -2.8968145790781619 -2.9334838576676194 -2.6652361163074492 -2.9500362755858651 -2.2442316624751082 -2.2154083411417442 -2.3030055069556576 -1.8305943199369381 -2.0871165103105138 -2.3301716280114562 -2.8159720919235438 -2.8941471549144921 -2.372656086286264 -2.7540941898898219 -2.6470024923216817 -1.8315314983062807 -2.8211313885193245 -2.596188355285157 -2.2306984694377952 -2.7987293926000367 -2.9831499767423595 -2.3784248298511876 -2.868699792292849 -2.532058369099198 -2.349767902726033 -2.7859632045857818 -2.9074435073541784 -2.532641488231536 -2.2049191750210229 -2.0487787732332108 -2.6816922298324521 -2.7154770564572477 -2.2777817614801852 -2.8123389650632205 -2.6626230584092716 -2.6865704990607706 -1.6974909474896709 -2.973746374863441 -2.0056449670810341 -1.9506677660337846 -1.9280952612945159 -2.8209197073101504 -2.3733319107741564 -2.2822877445459344 -1.9807967884956375 -1.821427840327666 -2.2610653681815807 -2.9795006338443382 -1.9213115548312314 -2.4773949892656493 -2.1891795005145909 -2.2335320736438833 -2.2302579727839396 -2.2473831711747687 -1.7490618939967626 -2.628822965712843 -1.8374387845106617 -1.6721610771673692 -2.5489359874941786 -2.7927499865787184
leaf_weight=79182.692823261023 104.51063425093889 68.268535919487476 350.59196510910988 232.99390646070242 69.841543659567833 3954.5414585620165 255.07893513143063 45.30262291431427 50.147486753761768 970.29409439116716 92.618695735931396 163.78156589716673 137.98423895984888 2938.7559803277254 161.70519568026066 194.48667698353529 339.07754845172167 189.32721159607172 429.80863489955664 132.00680954754353 61.913584649562836 43.603774555027485 13616.332519993186 67.450571894645691 1828.9675595462322 281.82006671279669 453.27791038155556 364.05691136419773 327.50021148473024 578.3005655631423 463.28223960846663 166.99050168693066 972.11878336966038 682.55951857566833 435.15686121582985 430.87828016281128 75.504371523857117 71.917913876473904 1135.4599070996046 1966.8888781964779 180.01500577479601 7.6762777715921393 124.77097394317389 561.68960382789373 32.529800064861774 127.4765472561121 68.394376538693905 314.66446832567453 61.09562062472105 4262.158852212131 249.73070881515741 116.52841338515282 34.22864842414856 43.037491768598557 16.610961735248566 12.961583778262137 49.455363348126411 55.118191212415695 45.113861985504627 47.819435298442841 70.219065517187119 237.90169060975313
leaf_count=1258460 1661 1085 5572 3703 1110 62850 4054 720 797 15421 1472 2603 2193 46706 2570 3091 5389 3009 6831 2098 984 693 216406 1072 29068 4479 7204 5786 5205 9191 7363 2654 15450 10848 6916 6848 1200 1143 18046 31260 2861 122 1983 8927 517 2026 1087 5001 971 67739 3969 1852 544 684 264 206 786 876 717 760 1116 3781
internal_value=-2.9344 -2.20538 -2.98278 -2.4349 -2.99844 -2.8113 -1.95871 -2.88046 -2.59315 -1.86012 -2.57807 -2.17525 -2.32213 -3.00179 -2.95808 -2.60716 -2.64066 -2.16758 -2.69853 -2.26219 -2.11335 -2.36429 -2.96735 -1.7862 -2.89577 -2.45396 -2.47697 -2.70777 -2.7677 -2.63051 -2.256 -2.00854 -2.73871 -2.82706 -2.37773 -3.01053 -2.33979 -2.57418 -1.75882 -2.94474 -2.16025 -2.24117 -2.08612 -2.93398 -1.91097 -2.42811 -1.98921 -1.90025 -2.47665 -3.01242 -1.98278 -2.61263 -2.51238 -2.47894 -2.71287 -2.76715 -1.96944 -2.86731 -2.02682 -1.8538 -2.48998 -2.86238
internal_weight=120807 7518.41 113289 3894.7 103811 9477.5 3623.71 7196.07 2281.43 2850.42 821.865 1553.38 773.291 102989 17146.6 2341.33 2115.07 552.44 591.514 308.31 422.95 727.925 16555.1 2297.98 7027.76 928.075 792.355 1413.25 513.556 942.357 506.886 825.452 1322.71 2511.53 716.977 85842.6 330.583 350.34 2105.75 2397.77 343.797 168.312 192.222 4516.23 221.857 199.394 166.361 481.655 130.937 83444.9 311.644 221.039 166.235 111.306 211.098 150.946 142.074 382.618 90.4165 116.214 77.8953 470.896
internal_count=1920000 119491 1800509 61899 1649882 150627 57592 114368 36259 45302 13062 24688 12290 1636820 272513 37211 33615 8780 9401 4900 6722 11569 263112 36522 111693 14750 12593 22461 8162 14977 8056 13119 21022 39916 11395 1364307 5254 5568 33467 38108 5464 2675 3055 71777 3526 3169 2644 7655 2081 1326199 4953 3513 2642 1769 3355 2399 2258 6081 1437 1847 1238 7484
is_linear=0
shrinkage=1


Tree=3
num_leaves=63
num_cat=0
split_feature=2 4 3 1 10 3 15 19 14 9 1 3 17 1 3 41 5 6 6 1 39 6 115 11 18 6 3 6 2 24 6 18 1 3 18 14 115 20 9 1 18 33 11 23 23 194 75 1 15 105 2 75 39 11 39 11 3 124 201 11 113 154
split_gain=280972 43157.5 42627.7 35573.8 26721.9 11607.5 7071.88 6501.99 5625.23 4800.02 6061.49 3988.63 3870.02 3597.86 3486.36 3465.23 3443.75 2643.18 2562.34 2036.47 1862.68 1778.13 1758.09 1473.14 1371.74 1330.32 1298.78 1255.71 1087.75 1024.2 962.226 921.196 837.809 792.757 790.505 784.4 732.392 725.114 709.813 703.039 677.261 495.736 421.554 395.674 349.352 347.099 342.461 300.795 232.058 231.853 216.051 206.791 202.89 175.496 166.25 132.23 122.446 109.121 105.369 98.737 73.0699 72.1878
threshold=0.2879560337291171 1.1734138749214778 0.31788415821354005 0.36653469498362562 2.6885069623782711 0.52250629665376735 0.0083460483432227662 1.6237675296171379 -0.59525601887231061 0.67789535581836913 1.7992599404668821 0.67597290048393777 1.4617367426575483 2.494054351134285 0.67597290048393777 0.47731162839097557 0.37113760801849277 -0.22777240801337237 -0.2635637126046611 0.80357478175082686 -0.44024930907513538 0.34006552369381182 3.0159843443884493 0.76111149700247005 0.62141392287933717 -0.34288841249670182 -0.70522653398759594 1.8405715468516537 2.6217085693885984 1.0000000180025095e-35 0.77159189110651327 0.62472167428856784 2.494054351134285 0.11326201977331278 -0.69507113799450104 0.67527957545020489 3.0159843443884493 2.5536835356398817 -0.43285135882898135 0.36653469498362562 0.13186671431318617 0.41331703662637048 1.3460488042737861 0.17151904980494145 0.17151904980494145 0.13177960685844939 -0.43786684988499475 1.4579997428450904 1.3738942794756761 0.61915094990998132 2.3123168248264796 -0.48376745153648198 -0.43643268222140369 0.76448792887280737 0.19636405012730909 0.74117165983813627 0.67597290048393777 0.803838802988878 0.5357501265054524 0.74252931600977534 3.3279481680883625 0.96765826288437062
decision_type=2 2 2 2 2 2 2 2 2 2 2 2 2 2 2 2 2 2 2 2 2 2 2 2 2 2 2 2 2 2 2 2 2 2 2 2 2 2 2 2 2 2 2 2 2 2 2 2 2 2 2 2 2 2 2 2 2 2 2 2 2 2
left_child=1 3 8 6 5 18 12 14 27 15 -11 24 21 34 26 -7 31 -13 19 -4 23 -1 32 33 -8 -16 -5 41 35 -14 36 38 -9 -18 50 -15 40 -24 42 -20 -10 45 -3 53 55 -2 -25 -43 -36 -33 -6 -45 -40 -22 57 -29 -30 -32 -51 -46 -38 -56
right_child=2 16 4 7 13 9 11 22 30 10 -12 17 29 28 25 -17 20 -19 39 -21 43 -23 37 46 -26 -27 -28 44 56 -31 54 49 -34 -35 48 -37 60 -39 52 -41 -42 47 -44 51 59 -47 -48 -49 -50 58 -52 -53 -54 -55 61 -57 -58 -59 -60 -61 -62 -63
leaf_value=-2.011371558993535 -1.8335293484293409 -1.8690245489106041 -1.8930558505396073 -1.8779815434219496 -1.7726346342778889 -1.755973657686787 -1.9473704927464552 -1.7900384438250654 -1.8144591644826478 -1.5806994329456516 -1.7017368256160441 -1.9336074027447017 -1.9678084665377269 -1.8258497040006623 -1.8838277564725547 -1.6416728542396521 -1.778757035550143 -1.8213847475296205 -1.7873794213678045 -1.7561976190735491 -1.8763347165764441 -1.9724252919025484 -1.7624816484568595 -1.5568297159988063 -2.001975351677054 -1.7945218055248446 -1.9620886461926481 -1.9301246884301015 -1.8805098769825621 -1.9026531117414287 -1.5947503692826626 -1.9674092014830689 -1.9016556831442843 -1.6538456018678467 -1.6506857465002935 -1.9257766038257444 -1.6771562051884292 -1.6376397961941813 -1.6623826740154086 -1.6807243485102894 -1.9011603419918532 -1.9586322094342443 -1.6884142510871172 -1.7092415977022848 -1.7699925306443527 -2.0040669518349108 -1.6663595720061699 -1.8530123295726184 -1.7404660698633343 -1.8336557630605528 -1.8973264653775681 -1.7801983977101639 -1.7854075939568781 -1.7586557593726941 -1.7303467028058781 -1.7044950700114085 -1.9582014883162906 -1.71608346388559 -1.9416786444724372 -1.6163406027774889 -1.527819456597701 -1.8276030077317098
leaf_weight=154554.07244923711 122.63260366022587 1137.7321404218674 2118.326686039567 2569.5338450074196 271.68794828653336 4655.8423861116171 8104.6317937374115 3501.9457453340292 2002.688337340951 17166.233094111085 5451.4777449667454 7071.8134777396917 8540.9178754538298 2012.4802942872047 3637.7897194772959 6163.8037558346987 1113.7962456643581 2984.5263060629368 815.99641218781471 2233.8096068501472 501.56579469144344 12684.936226263642 866.97675946354866 989.7647910118103 10640.593214929104 3080.4253129810095 6431.2951511442661 224.28244243562222 221.9510241150856 3362.3715018779039 141.43937811255455 586.8957052230835 832.31634043157101 934.2770349830389 634.45663896203041 1288.4971918165684 110.19837261736393 1004.0641567111015 325.62142543494701 2547.6185127943754 1637.7436562329531 1074.4729899913073 145.79135897755623 608.96646532416344 207.4962305277586 4455.0295547693968 401.15937902033329 359.97098869085312 527.05596832931042 273.70851083099842 284.43303510546684 1261.6081671863794 227.85728386044502 169.57182584702969 260.03085668385029 29.37587083876133 2358.4627730548382 155.73874381184578 134.75597892701626 52.379198268055916 46.628366410732269 108.02238218486309
leaf_count=994378 789 7320 13629 16532 1748 29955 52144 22531 12885 110445 35074 45499 54951 12948 23405 39657 7166 19202 5250 14372 3227 81613 5578 6368 68460 19819 41378 1443 1428 21633 910 3776 5355 6011 4082 8290 709 6460 2095 16391 10537 6913 938 3918 1335 28663 2581 2316 3391 1761 1830 8117 1466 1091 1673 189 15174 1002 867 337 300 695
internal_value=-1.92746 -1.976 -1.73351 -1.98433 -1.6934 -1.66159 -1.9971 -1.86317 -1.91144 -1.63608 -1.60987 -1.95111 -2.0045 -1.86569 -1.89739 -1.69086 -1.75883 -1.9003 -1.77215 -1.82281 -1.71582 -2.00842 -1.7765 -1.66784 -1.97837 -1.84288 -1.93808 -1.9706 -1.90288 -1.9494 -1.82491 -1.84967 -1.81147 -1.72178 -1.73837 -1.86485 -1.84435 -1.69549 -1.80769 -1.7066 -1.85346 -1.98342 -1.84851 -1.78073 -1.82051 -1.9995 -1.58842 -1.93213 -1.69143 -1.92715 -1.83641 -1.7571 -1.71303 -1.8466 -1.71397 -1.90399 -1.95152 -1.65834 -1.86929 -1.73902 -1.63275 -1.75889
internal_weight=298422 238681 59740.3 229868 48752.1 41153.1 207944 21924.3 10988.1 33437.4 22617.7 28801.6 179142 7599.02 15719 10819.6 8813.07 10056.3 7715.75 4352.14 5980.71 167239 6205.3 3439 18745.2 6718.22 9000.83 6525.64 5881.39 11903.3 4462.49 2832.36 4334.26 2048.07 1717.63 3300.98 3797.26 1871.04 1837 3363.61 3640.43 6012.11 1283.52 2541.71 513.534 4577.66 1390.92 1434.44 1161.51 995.36 556.121 1870.57 553.479 671.138 665.231 253.658 2580.41 297.178 408.464 259.875 156.827 368.053
internal_count=1920000 1535640 384360 1478938 313664 264773 1337880 141058 70696 215131 145519 185305 1152575 48891 101134 69612 56702 64701 49642 28001 38479 1075991 39924 22126 120604 43224 57910 41985 37840 76584 28711 18223 27886 13177 11051 21238 24431 12038 11819 21641 23422 38681 8258 16353 3304 29452 8949 9229 7473 6404 3578 12035 3561 4318 4280 1632 16602 1912 2628 1672 1009 2368
is_linear=0
shrinkage=1


Tree=4
num_leaves=63
num_cat=0
split_feature=1 5 3 6 2 9 18 15 1 1 17 18 1 11 3 2 4 3 2 1 5 6 11 6 2 6 6 3 6 3 24 11 11 5 31 3 18 6 1 3 20 3 14 18 63 4 6 11 9 52 2 37 54 2 6 10 2 47 29 11 79 36
split_gain=513039 74095 67141.2 22911.1 15894.2 14199.2 13050.3 12750.4 6678.3 6417.13 6272.56 5832 5633.2 5492.36 5283.88 4238.06 3682.87 3491.78 3466.1 3228.23 2843.4 2402.81 2254.09 2023.75 1968.32 1956.02 1944.97 1905.78 1748.5 1709.81 1348.23 1327.56 1141.17 1103.21 1082.36 1077.89 1074.3 874.501 866.76 801.812 798.487 759.176 743.435 736.129 688.987 675.38 673.147 643.77 640.449 633.857 611.876 513.972 466.635 430.9 416.387 378.636 354.883 273.191 240.553 191.423 187.772 165.632
threshold=0.60009572836635716 0.23247802077696778 0.52250629665376735 2.2247569333687855 0.2879560337291171 0.55880491091097084 0.47091123375933797 0.11242217997772712 1.4579997428450904 1.4579997428450904 1.4617367426575483 0.46594960664549184 1.2748118363462408 0.76448792887280737 0.67597290048393777 0.2879560337291171 0.64340417926204274 0.67597290048393777 0.2879560337291171 1.561300126990065 1.5922538985760886 -0.29776852319810904 1.3205012568352907 -0.30182994783258155 0.2879560337291171 0.54919716248918793 -0.37347601677507269 0.31788415821354005 -0.32067749652693039 0.52250629665376735 1.0000000180025095e-35 1.3205012568352907 1.3472411805636604 0.90762353079693214 -0.4759835350225245 0.67597290048393777 0.29063878195626219 1.6697061432841982 2.1864944848784704 -0.70522653398759594 2.5536835356398817 0.11326201977331278 -0.22238144227765941 0.71237708663318278 0.78920499421506551 0.64340417926204274 -0.34396722841523358 1.3205012568352907 1.2352351226161014 0.01509410252783361 1.8338992475313001 2.1987960331746401 0.64633888920946303 -0.551869916225605 -0.40158869041681194 1.7589509409605457 0.2879560337291171 3.8331404637995798 2.068094517139492 1.3250110364663006 0.20213115289520059 1.0000000180025095e-35
decision_type=2 2 2 2 2 2 2 2 2 2 2 2 2 2 2 2 2 2 2 2 2 2 2 2 2 2 2 2 2 2 2 2 2 2 2 2 2 2 2 2 2 2 2 2 2 2 2 2 2 2 2 2 2 2 2 2 2 2 2 2 2 2
left_child=1 7 6 5 8 17 9 10 28 23 16 15 26 20 36 21 24 42 -19 25 29 -9 -16 51 -1 41 31 39 49 -5 34 -6 -18 47 -12 53 -7 -25 54 -21 60 -8 -3 -22 -17 -30 -32 -15 -28 -4 57 -2 -27 -13 -11 -29 -37 -14 -42 -35 -10 -40
right_child=2 3 4 13 12 14 19 11 40 38 30 35 50 33 22 44 32 18 -20 27 43 -23 -24 37 -26 52 48 55 45 -31 46 -33 -34 59 -36 56 -38 -39 61 -41 58 -43 -44 -45 -46 -47 -48 -49 -50 -51 -52 -53 -54 -55 -56 -57 -58 -59 -60 -61 -62 -63
leaf_value=-0.13286802813565235 -0.31195595600441151 -0.14197740617691207 -0.23247857772430647 -0.28264948875397555 -0.43383855835042795 -0.33312056475527457 -0.17212376665595222 -0.19577054338141583 -0.47199852092587202 -0.39972842066512482 -0.15183363239238387 -0.18507310531017573 -0.55295739171270109 -0.39010044082725115 -0.3711907040903929 -0.43746467116056775 -0.19798076283555166 -0.19456932375283464 -0.31522440437237076 -0.41527015848962556 -0.50577091571414812 -0.27949783602901529 -0.51012380472679386 -0.37235490532883908 -0.22275611672513149 -0.26460302644979378 -0.51544486911060317 -0.3414569554000238 -0.38684829316040364 -0.41475832257672524 -0.20773345588626671 -0.54321334617900352 -0.36457425038782498 -0.52673853138241422 -0.20947025098877747 -0.21769789761401495 -0.19075551876439509 -0.50762829013013899 -0.55270231172250728 -0.22683726925725201 -0.57849921868846021 -0.23877054148537685 -0.20931041735487471 -0.37231417105957376 -0.32284651161387701 -0.53343190163699383 -0.28101914119199384 -0.51397779657812703 -0.57211794716974151 -0.32764185739444174 -0.59707600068215416 -0.23132173291205252 -0.40303667015929079 -0.13945316363018739 -0.47973977898846054 -0.45924260286103952 -0.35223424332887743 -0.59504635166591524 -0.4909902380497897 -0.58256305555536458 -0.35619491439194595 -0.48704264200363045
leaf_weight=216020.82255345583 3039.4132245182991 7213.9713329672813 1032.6748329401016 3320.308753401041 4222.6034047305584 771.31639549136162 4551.3448718190193 8173.8804682195187 579.73328459262848 1035.8645621538162 6586.591468244791 2706.2858797609806 6019.617100507021 899.90235441923141 4174.1593922972679 1105.0418144762516 6322.0433015823364 6002.472305983305 3946.2931115925312 276.70900928974152 1358.2265708148479 5902.7932680547237 1621.3792309463024 3082.6739269793034 2463.866459518671 414.26608163118362 4926.7361286580563 382.16943141818047 2175.1959656774998 1389.7251468002796 2744.5626303255558 1505.3528307974339 439.78391534090042 1315.7633006572723 6447.6388893723488 1460.4972637295723 1694.543644785881 565.57886120676994 1507.944485783577 1227.8463892042637 1772.8913685977459 2736.9870234429836 2122.1667174994946 594.08706605434418 998.18588581681252 367.41693380475044 2306.772295743227 785.86953502893448 3349.8137486279011 2172.2055945396423 17225.335186362267 1068.3599285185337 590.69797876477242 8812.6237432658672 1747.9716091156006 954.7258252799511 226.47077417373657 2073.3239889144897 381.77071526646614 1152.0903203785419 184.60557824373245 515.53998416662216
leaf_count=1083582 15246 36186 5180 16655 21181 3869 22830 41001 2908 5196 33039 13575 30195 4514 20938 5543 31712 30109 19795 1388 6813 29609 8133 15463 12359 2078 24713 1917 10911 6971 13767 7551 2206 6600 32342 7326 8500 2837 7564 6159 8893 13729 10645 2980 5007 1843 11571 3942 16803 10896 86404 5359 2963 44205 8768 4789 1136 10400 1915 5779 926 2586
internal_value=-0.222076 -0.166499 -0.463245 -0.296625 -0.531253 -0.248199 -0.325528 -0.148195 -0.408665 -0.39539 -0.140681 -0.210416 -0.558271 -0.419955 -0.357893 -0.250663 -0.136131 -0.201208 -0.242429 -0.246703 -0.363689 -0.23088 -0.410059 -0.339123 -0.133882 -0.215185 -0.50738 -0.338692 -0.346106 -0.321629 -0.197342 -0.462583 -0.208816 -0.510205 -0.180345 -0.161105 -0.235287 -0.393326 -0.486169 -0.261493 -0.531843 -0.197152 -0.157283 -0.46516 -0.383067 -0.40803 -0.241201 -0.447849 -0.538382 -0.296978 -0.58642 -0.290984 -0.345972 -0.150171 -0.449968 -0.425572 -0.235759 -0.56374 -0.562994 -0.5528 -0.444029 -0.535974
internal_weight=382768 311080 71687.4 38362.3 47989.3 27546.3 23698.1 272718 8666.49 12563.3 243332 29385.8 39322.8 10816 8261.4 16179.9 225247 19284.9 9948.77 11134.7 6662.35 14076.7 5795.54 7756.03 218485 8293.3 14004.5 2841.45 5747.49 4710.03 18085.6 5727.96 6761.83 4153.63 13034.2 13205.9 2465.86 3648.25 4807.32 1504.56 2919 7288.33 9336.14 1952.31 2103.23 2542.61 5051.33 1685.77 8276.55 3204.88 25318.3 4107.77 1004.96 11518.9 2783.84 1336.9 1686.97 8092.94 2154.66 2467.85 764.339 2023.48
internal_count=1920000 1560409 359591 192429 240719 138175 118872 1367980 43472 63019 1220578 147402 197247 54254 41440 81160 1129859 96735 49904 55853 33419 70610 29071 38905 1095941 41600 70248 14253 28830 23626 90719 28732 33918 20835 65381 66242 12369 18300 24114 7547 14642 36559 46831 9793 10550 12754 25338 8456 41516 16076 126999 20605 5041 57780 13964 6706 8462 40595 10808 12379 3834 10150
is_linear=0
shrinkage=1


Tree=5
num_leaves=53
num_cat=0
split_feature=10 60 364 377 188 160 490 458 426 156 250 470 506 250 31 279 224 465 268 410 10 511 105 358 358 423 14 511 499 224 10 270 10 94 35 0 537 10 413 279 224 577 177 138 218 360 177 397 169 19 31 516
split_gain=28551 323835 2.84092e+06 3.62405e+06 1.01374e+06 715428 288243 536465 5.26813e+06 43694.4 237446 25960.3 14113 11285.3 6273.06 4790.82 40741.4 756605 1.24409e+06 2.31166e+06 130411 132479 73368.5 2869.4 12826.3 30555 2849.61 9483.54 3856.93 2030.44 26273.4 1603.84 25605.3 27872.8 1028.18 1844.48 818.637 617.712 3326.85 1032.27 3569.37 424.068 251.742 263.436 214.715 202.921 94.2234 64.9675 28.856 3.35379 2.34435 6.22072e-10
threshold=4.2002911318743488 3.1414517429194952 0.56877017108859196 5.9716344862206263 2.2907725881311478 3.2439844721076105 5.271601228280411 1.4931130160742072 2.1495404682587749 2.9062469583414843 5.3886206713882405 3.2760110192795158 -0.15314958909579643 4.4525266486744206 2.9330010009116938 4.4270562773293802 2.5017135462533662 4.4549766384110638 3.9952964637124113 4.9056769513226195 3.2633944768710292 0.45853847836553074 0.62032355098927827 6.0618515826513422 6.1423150061138809 0.18752981607833977 2.4429812718989221 -0.56895240399737423 -0.048556918204284726 2.3657474725020831 3.0938644759574392 7.5975716416850512 3.0938644759574392 0.54733619566157543 1.0000000180025095e-35 0.17844886457681805 4.3342559440339032 2.802789036831872 9.3904293128619969 4.2815740746275459 2.2892752539490329 9.4931586930688585 3.4402792638258686 2.1040152419818972 7.1700734269363382 4.6176623341759901 3.4442278862909634 5.9242475261360195 1.421535503908369 12.576203833960982 3.006637726295597 3.1396439573037838
decision_type=2 2 2 2 2 2 2 2 2 2 2 2 2 2 2 2 2 2 2 2 2 2 2 2 2 2 2 2 2 2 2 2 2 2 2 2 2 2 2 2 2 2 2 2 2 2 2 2 2 2 2 2
left_child=15 14 3 4 5 -3 9 8 -8 13 -11 -9 -6 -4 26 31 29 20 22 -20 36 -22 -19 34 -25 -26 42 -28 -29 47 46 37 49 -34 44 -36 -18 38 41 45 -41 -1 48 -44 -16 -39 -31 50 -2 51 -17 -33
right_child=1 2 6 -5 12 -7 7 11 -10 10 -12 -13 -14 -15 23 16 17 18 19 -21 21 -23 -24 24 25 -27 27 28 -30 30 -32 32 33 -35 35 -37 -38 39 -40 40 -42 -43 43 -45 -46 -47 -48 -49 -50 -51 -52 -53
leaf_value=-0.080447854597323731 -0.050481878674225801 -1375.2868892754909 -0.50651778398169767 -5482.2502954922065 -194.04371715652911 -270.65523969553482 -6242.7875035954639 -173.21232914733872 -10.116764357012118 -1.4138260187513672 -406.01379404298206 -0.080313957031349525 -8.3481607850777131 -20.797467603903446 -1.6695392854307767 -0.080032616205139573 0.51556239720678865 -91.482084599920725 -5589.8532944280887 -207.21509796282973 -110.21752776280542 -628.5779924881399 -575.96619329703299 -1.6188078892769546 -4.6026585396924906 -94.151005525933556 -208.03547167507509 -51.433002274059817 -5.2405306366835873 -0.080033674433431429 -149.33816133297734 -0.080032125046863689 -27.05266078356761 -285.86634348604554 -11.849366177761558 -2.72845615527658 28.808768297741906 -0.18785605891281046 -47.608556393705896 -0.19291023152216891 -8.5624753770748736 -21.284506445982974 -6.4572753179270679 -0.084001786161065434 -3.1012637311074829 -0.65584850385753235 10.046058357673211 -6.6759007358656408 0.71373717136977077 -0.76498593980282104 -0.1959183919597958 -0.080057331958594491
leaf_weight=862.93065160527772 32.690714258966985 0.018904172807260686 0.70390226144987877 0.0016051729801505035 0.0061861709914917675 0.008499173724373324 0.0015698192904740069 0.015017378037637974 0.0099636893719434738 0.074990433557540592 0.017983229617952234 0.020460696254046007 0.012094505218846252 0.448903472023786 55.836801085621126 4.6923486625848279 0.67158845072844986 0.0087525432825963367 0.0013596258191930213 0.0019311075042116599 0.035410294345921578 0.0057279424119662794 0.0048620720421463934 0.76351708173751731 0.12875369290122762 0.05412013999739429 0.0024043626617712413 0.019473117433350284 0.25191967812462773 0.13222068001050491 0.012729627467297888 0.17325662088123744 0.011122393252951057 0.0066483234062008614 0.26816107169179026 1.280137440587177 0.010384627967141569 943.00285442761503 0.014728003493586495 2.2669083552318394 0.6572922723065856 0.0094319731579152188 0.1255294928010392 0.13418282300702611 1.0675011000203074 9.3570011203645418 0.0098754798236768693 0.015161015937357081 0.5016661727859163 0.117050901055336 2.7798365573689807 0.010376793157774955
leaf_count=1856074 4012 333 154 140 33 50 160 39 5 18 183 8 32 221 1085 9632 1243 22 90 7 93 55 40 16 54 81 6 25 130 262 38 348 20 32 48 45 11 40481 32 274 156 19 23 20 40 3745 20 30 152 1 148 14
internal_value=-0.242708 -1.93793 -50.7463 -812.032 -647.937 -1032.68 -22.8991 -265.97 -858.442 -13.7264 -79.6727 -73.3647 -71.1874 -8.40783 -1.23557 -0.155053 -2.54027 -24.9443 -686.253 -2431.15 -9.48385 -182.392 -264.502 -1.85402 -7.31628 -31.1038 -0.146357 -10.3067 -8.55496 -0.370807 -11.706 -0.144059 -7.24015 -123.879 -1.76558 -4.30817 0.946392 -0.142816 -0.0814908 -0.198214 -2.07419 -0.0806796 -0.0631973 -3.16446 -1.6964 -0.192454 0.623715 -0.136414 -0.0389316 -0.346673 -0.123145 -0.0800335
internal_weight=1921.4 94.465 1.34008 0.0472892 0.045684 0.0274033 1.29279 0.0470116 0.0115335 1.24578 0.0929737 0.0354781 0.0182807 1.15281 93.1249 1826.94 8.38219 0.740017 0.0169053 0.00329073 0.723111 0.0411382 0.0136146 59.399 0.946391 0.182874 33.7259 0.273797 0.271393 7.64217 0.154826 1818.56 0.318455 0.0177707 58.4526 1.5483 0.681973 1818.24 862.955 955.284 2.9242 862.94 33.4521 0.259712 56.9043 952.36 0.142096 7.48735 33.1924 0.300684 7.47219 0.183633
internal_count=1920000 7113 1376 588 448 383 788 212 165 576 201 47 65 375 5737 1912887 11691 1561 159 97 1402 148 62 1369 151 135 4368 161 155 10130 320 1901196 415 52 1218 93 1254 1900781 1856125 44656 430 1856093 4207 43 1125 44226 282 9810 4164 363 9780 362
is_linear=0
shrinkage=0.1


Tree=6
num_leaves=21
num_cat=0
split_feature=199 516 396 297 599 396 10 465 6 284 192 31 607 210 98 203 380 221 261 1
split_gain=96848.3 202739 637049 196939 74284.8 50054.5 536174 3.16267e+06 5.2475e+06 34027.1 6967.69 27225.8 46125.7 7123.98 4793.74 4370.91 2050.45 1904.13 1885.19 5.24654e-11
threshold=8.8243426937597373 2.6422208805479492 5.347051005145798 0.64179524825837286 21.072528766313784 5.8689760211513047 3.7220681712297674 5.3989533907457385 -0.092856958436989559 3.9411679509654438 14.343654775323319 0.43978438953945181 0.60429647583118284 13.469246789180655 0.36818752717677139 1.605300244657258 9.9705691129290717 -2.0863788706905968 1.0000000180025095e-35 0.72269398647248118
decision_type=2 2 2 2 2 2 2 2 2 2 2 2 2 2 2 2 2 2 2 2
left_child=4 2 3 14 5 10 17 9 -9 -8 16 12 -12 -13 -2 -3 18 -7 -1 -19
right_child=1 15 -4 -5 -6 6 7 8 -10 -11 11 13 -14 -15 -16 -17 -18 19 -20 -21
leaf_value=-9.6298335615525605 -2074.5221633673409 -71.238746987557732 -13.623287070954687 -570.11502558280608 -338.14923085360579 -39.148653012809753 -15.166661933520198 -8802.406829504338 -1038.035719414743 -267.89874642498012 -66.174528105492016 -80.531762320635934 -630.60052243138261 -4.9766390524631099 -2371.0912298888502 -4.7270273331942674 -51.480785289265341 -0.080039491052866327 -0.13578459590343692 -0.080045317290726614
leaf_weight=0.20942785298433264 0.0010122422645535692 0.018268074386636218 0.0073837560776155451 0.0010524711760808714 0.0065075480705435442 0.012797998584574199 0.033141943009796081 0.0011019813036740765 0.0041427578935586788 0.0063475759894957079 0.0060519386752204696 0.013672815816386075 0.0019031894553336315 0.14297951055889996 0.0011808511191020443 0.021519293575693155 0.0077819886646456329 0.015972086635881066 156.09172333687451 0.47831544035931467
leaf_count=3009 22 34 13 7 41 24 102 170 76 32 80 59 36 205 29 6 22 26 1915318 689
internal_value=-0.337236 -138.914 -526.886 -1694.58 -0.292744 -0.278743 -30.3435 -362.219 -2669.42 -55.791 -0.172716 -20.7359 -201.208 -11.5712 -2234.21 -35.2654 -0.151061 -1.06607 -0.148506 -0.0800451
internal_weight=157.082 0.0504167 0.0106293 0.00324556 157.032 157.025 0.55182 0.0447343 0.00524474 0.0394895 156.474 0.164607 0.00795513 0.156652 0.00219309 0.0397874 156.309 0.507086 156.301 0.494288
internal_count=1920000 111 71 58 1919889 1919848 1119 380 246 134 1918729 380 116 264 51 40 1918349 739 1918327 715
is_linear=0
shrinkage=0.1


Tree=7
num_leaves=63
num_cat=0
split_feature=1 5 1 14 10 31 10 60 279 13 18 6 60 27 13 7 13 52 6 18 14 6 13 56 15 29 13 18 6 1 224 10 5 1 13 11 12 7 57 13 1 1 107 39 396 57 10 6 5 6 194 50 6 6 144 3 31 30 77 15 6 3
split_gain=158440 11680 11662.7 5672.05 5326.74 20077.1 12426.8 23846.2 5601.35 5070.19 4484.65 3447.82 2954.42 2172.07 1790.16 1709.93 1393.23 1568.8 1386.02 1318.94 1264.22 1202.32 1185.75 1095.03 808.114 780.808 772.574 785.421 753.78 747.295 685.458 661.538 561.193 479.722 469.422 446.859 400.206 370.483 366.947 355.137 325.11 290.891 286.017 264.732 259.864 255.297 239.904 229.472 226.21 218.776 190.738 230.939 186.285 171.857 165.033 149.241 146.115 119.409 109.381 105.597 88.3751 84.2864
threshold=1.5069539084082997 0.83325020170104358 2.2768823210053237 0.30240499885555355 3.4536327914787135 2.9330010009116938 4.2002911318743488 3.1414517429194952 4.2624130040277928 0.35477651632320439 -0.19063904808681184 -1.0000000180025095e-35 1.042732444184771 2.4034714091161695 -0.13581179801957632 2.1103975867662217 -0.55710797756817887 0.0041508163719302955 -0.25087176062193456 0.71237708663318278 0.10906262580647504 -0.36789155790267303 -0.45732730346456252 1.8972766892732287 0.60234322362521731 1.2923658256989925 -0.53632033712992544 0.63795267992549087 -0.3452364236135062 1.1225572866380567 2.3657474725020831 4.2002911318743488 2.4432026451575894 0.80357478175082686 0.8422466846002471 1.608914650514792 1.4309941238244199 6.4750947181356073 2.3794525328212557 -0.17808000024402496 1.1225572866380567 0.72269398647248118 1.95043680230807 0.66924411730466449 5.8689760211513047 -0.037571390517908365 1.6455188346063296 -0.21133633019574152 2.239805139877133 -0.14102291621143667 0.13548477449091048 1.9510372707116901 -0.29383401808346382 -0.24236815279350785 -0.30681806700418784 1.0000000180025095e-35 0.41673327324760928 3.2434519167588101 3.1315471584722308 1.837137141380855 -0.1443862834868592 -0.70522653398759594
decision_type=2 2 2 2 2 2 2 2 2 2 2 2 2 2 2 2 2 2 2 2 2 2 2 2 2 2 2 2 2 2 2 2 2 2 2 2 2 2 2 2 2 2 2 2 2 2 2 2 2 2 2 2 2 2 2 2 2 2 2 2 2 2
left_child=1 9 10 13 19 30 8 -8 -7 24 16 29 18 40 37 26 36 45 33 23 -20 41 48 43 42 -25 59 -28 -19 56 44 -32 -16 -11 -23 -24 46 -15 49 -31 60 -14 53 -4 -6 -18 -2 -42 -13 -26 51 -21 -40 -1 -52 61 -5 -44 -57 -12 -3 -17
right_child=2 3 4 11 5 6 7 -9 -10 12 15 22 21 14 32 55 17 28 20 50 -22 34 35 25 38 -27 27 -29 -30 39 31 -33 -34 -35 -36 -37 -38 -39 52 -41 47 -43 57 -45 -46 -47 -48 -49 -50 -51 54 -53 -54 -55 -56 58 -58 -59 -60 -61 -62 -63
leaf_value=-0.080940378495915732 0.049366369602041722 -0.066040937326819898 0.10380762986105162 -0.032223489964633381 0.33427084394544199 0.76653252571433961 5.2407645399697502 1.2574452526808924 4.5435614720214117 -0.057513763576192672 -0.027907447560683165 0.061388604627993164 -0.0039686000735812558 -0.019990645502302899 0.11442187309516455 0.39527159770288478 0.027924380463871717 0.2374751981487204 -0.013810925248659621 0.11353626675740608 0.10194924876800371 0.17012915706392134 0.25817810131838453 0.31755714291825787 -0.057769148177543243 0.21690389020115705 0.12957027310904809 0.012045082182892471 0.33717575649379627 0.013697959907655839 0.8954024204301354 0.38684213290608299 0.26861730913143539 0.00066305918637946353 0.35997554021842237 0.41206318986143942 0.40652515482952212 0.19904248530673854 -0.0026557805049817738 0.15596525781341933 -0.031104978858996796 0.16684894607043374 -0.043613831181480683 0.23380290303019613 0.71503245815563554 0.16507207833772863 0.15998172879174596 0.042592436317438254 0.21250643652372384 -0.0010861754013451097 0.027379113931631019 0.30659415857253414 0.1197916030938737 -0.070044982871904568 0.18980765703383906 0.2913739090508029 0.035214136085520306 0.052913049986936939 0.4452188133754782 0.059182312963229677 -0.033426555310326227 0.059965691136383059
leaf_weight=52490.832354371087 386.57805251942193 2855.3997168019405 326.21013128012692 638.05909882113383 2615.5138337208227 252.68103822136237 20.020850617894624 60.276712541483775 3.9883558483337529 6714.5846865064614 606.69797351247416 359.04231668884631 357.92497949674726 1135.9180434942245 588.013223595917 10.962682515382765 206.6266953195227 1327.7066390495788 2836.2893123290664 146.16755104809974 1413.6175161998185 272.01366715878248 1146.2016871549172 5864.0556378782385 2499.9316750839353 887.32554672220976 2477.6122791473103 738.0315398266971 1768.2336382950989 235.56354117020965 43.564921492553012 61.95182450570509 394.30792512694757 1796.6499328942027 249.90028509497643 225.89176819846034 46.789760005763583 82.856233060359955 297.3203067407012 687.72381025597269 1255.0151496436306 138.18079259991646 1452.076112113893 301.39978562603847 18.047855764627457 395.56422133804654 397.85483975945033 636.91349601745605 136.79624749720097 935.80745057016611 204.42020200937986 107.55477548060961 213.43543845415115 19990.560721745322 90.134037017822266 71.684536952525377 647.14133341610432 140.56222052127123 130.06556494111828 180.69001969322562 1171.7788713526056 23.712472029030323
leaf_count=938911 3889 44541 3083 9068 14659 2754 1355 1265 315 113023 7320 4398 5792 16005 7075 113 2029 10620 45868 1337 20510 4063 10646 36086 40110 6370 25932 8784 12888 2845 536 377 3498 26241 3503 2000 375 934 4586 7569 17429 1815 24887 2635 193 3415 3301 8507 1189 14635 2116 779 3169 350717 863 728 8809 2330 1089 2052 17807 262
internal_value=-0.00323938 -0.0525733 0.256244 0.0393687 0.324806 0.436501 1.16489 2.25062 0.825223 -0.0647888 0.170211 0.135617 -0.00886658 -0.00894899 0.0758639 0.0962922 0.239399 0.265694 -0.0219451 0.281464 0.0246936 0.155076 0.235617 0.292583 -0.0746652 0.304328 0.0808579 0.102597 0.294419 0.0510375 0.346894 0.596812 0.176317 -0.0452331 0.26103 0.283513 0.122416 -0.00510006 -0.0305733 0.119668 -0.0404877 0.0436094 -0.0770143 0.166236 0.33688 0.118013 0.105469 -0.00629491 0.10308 -0.0423302 0.131824 0.195375 0.0485127 -0.0779354 0.0770825 0.357618 0.00173361 -0.0350946 0.390556 -0.00792206 -0.0565512 0.165974
internal_weight=123768 103996 19772.1 12196.6 11003.3 3076.05 336.967 80.2976 256.669 91799.7 8768.81 4076.42 13779.2 8120.2 2201.1 4239.46 4529.35 3698.13 12761.1 7927.27 4249.91 1018.02 1867.93 7378.99 78020.5 6751.38 4003.03 3215.64 3095.94 2208.49 2739.08 105.517 982.321 8511.23 521.914 1372.09 831.223 1218.77 3946.49 923.287 5919.11 496.106 74074 627.61 2633.56 602.191 784.433 1891.93 495.839 3435.74 548.277 253.722 510.756 72481.4 294.554 236.425 1285.2 1592.64 201.75 787.388 4027.18 34.6752
internal_count=1920000 1762480 157520 162320 74723 21454 5689 2620 3069 1600160 82797 46524 220815 115796 27512 46280 36517 28952 205642 53269 66378 15173 18233 48174 1379345 42456 44088 34716 23508 28291 15765 913 10573 139264 7566 12646 7565 16939 62500 10414 88284 7607 1316845 5718 14852 5444 7190 25936 5587 54745 5095 2116 7755 1289628 2979 2192 17877 27217 1817 9372 62348 375
is_linear=0
shrinkage=0.1


Tree=8
num_leaves=63
num_cat=0
split_feature=2 4 1 3 10 15 18 14 17 3 3 5 1 112 6 6 3 9 6 39 60 2 18 39 6 115 9 6 18 24 23 335 3 11 11 11 19 50 14 33 18 4 23 3 6 194 2 23 1 9 18 11 1 75 2 2 31 27 19 18 5 71
split_gain=166736 29795.6 28260.6 17616.7 10257.7 5294.78 4465.46 3743.62 3002.63 2953.56 2832.89 2477.81 2203.59 2185.42 1734.48 1526.63 1479.41 1337.44 2381.48 1985.19 1259.21 1129.13 1044.92 1040.76 959.886 862.008 843.717 823.942 811.512 745.912 691.307 703.865 642.165 632.299 612.42 595.138 518.325 516.829 386.997 374.505 331.032 319.831 305.428 304.259 293.23 277.629 259.366 245.684 228.922 218.914 204.523 198.686 196.022 167.927 135.58 131.982 118.977 112.868 98.7785 95.0369 83.5399 54.7869
threshold=0.2879560337291171 0.84268401238200707 0.26465327215932355 0.11326201977331278 2.4699878910092501 -0.057638219113052981 0.62306779858395245 -0.6643068663898386 1.4617162942723689 0.67597290048393777 0.82943950431410818 0.13950060560012392 2.2768823210053237 0.72271152468007249 -0.31947176108857139 -0.35304197408288301 0.52250629665376735 0.7983773009122509 -0.28818609945115053 0.41772840764374669 -0.20315883250288078 -0.70442193615557736 0.4560263524177996 -0.45818745528767429 -0.16297999314155351 3.0159843443884493 -0.56215834457924407 1.5016012392729854 -0.19063904808681184 1.0000000180025095e-35 0.40232310150909606 0.26778037833360474 -0.70522653398759594 0.75631838043129218 0.75631838043129218 -0.063605598739067265 1.8769844215163207 2.2233664515903904 0.77195076197474399 0.41331703662637048 0.79010924475010536 0.84268401238200707 -0.29008905360336762 0.31788415821354005 -0.32315242716356207 0.13545223651313129 2.3123168248264796 0.17151904980494145 1.3189415334191628 -0.14178613824262559 0.71237708663318278 1.3460488042737861 0.35120991272036017 -0.48556044378849322 0.20795649073329575 2.1796236477276283 -0.47583044411736047 1.5442368015098336 0.34914669055255493 0.62306779858395245 2.8014119557683537 1.0417600680941013
decision_type=2 2 2 2 2 2 2 2 2 2 2 2 2 2 2 2 2 2 2 2 2 2 2 2 2 2 2 2 2 2 2 2 2 2 2 2 2 2 2 2 2 2 2 2 2 2 2 2 2 2 2 2 2 2 2 2 2 2 2 2 2 2
left_child=1 2 5 7 10 8 13 27 24 21 15 26 38 20 -11 22 32 18 -12 -19 -4 -7 -5 34 -1 -15 51 39 46 -10 31 42 -8 -17 35 -13 -18 -30 57 45 49 -33 -9 50 52 -2 -14 60 -41 -28 -25 59 -32 -36 -45 -40 -46 -6 -42 -3 -29 -49
right_child=3 11 6 4 12 9 16 30 29 14 17 23 28 25 -16 33 36 19 -20 -21 -22 -23 -24 43 -26 -27 40 47 37 -31 44 41 -34 -35 53 -37 -38 -39 55 48 58 -43 -44 54 56 -47 -48 61 -50 -51 -52 -53 -54 -55 -56 -57 -58 -59 -60 -61 -62 -63
leaf_value=-0.083679053698853867 0.015529178962477175 -0.0067112244255828251 -0.014196032311475244 0.12583498106054938 0.17026255829378431 -0.0063247205952212601 0.013263610966985638 -0.0059475861146223528 -0.042663759271271487 -0.023356161849771007 0.11783807903357085 0.15301373096984727 0.032659501819159963 0.082054263588338228 0.057931575876833265 0.12490633574935257 0.031513645019960415 0.21741389758259203 0.19501535616111701 0.16354920321633115 0.057435037138574653 -0.065581057456836761 0.024532796497801185 0.082652848171330298 -0.061858663297931375 0.15189921252310748 0.084479315673767666 -0.014474980988346582 0.096757301487787786 0.014135060432754455 -0.014675023029236005 -0.017083683710585145 -0.060629882879484592 0.19290351378980009 0.20991939665704012 0.054614133008244442 0.16609626430473123 0.022905704057470857 0.1242608850242331 -0.03856171276399116 -0.018948822526082196 0.12638222442970262 0.11850478860627725 0.12466242311431946 0.079070593091105465 -0.081098215778533378 -0.018486077636379224 0.12158945378293862 0.05487723118272006 0.19038597391339296 0.012974987643749472 0.11104380614042592 0.090976844790540898 0.15346711817162187 0.046334816458174888 0.03698774097643031 0.15096320944453304 0.080422925918581536 0.12860493874270115 -0.054870234222495089 0.19402508327947435 0.34925913836521777
leaf_weight=115572.56049688143 324.5743759959314 1027.7987975925207 3484.1978334711257 1878.2958314054849 1702.1286018864998 4066.803891569376 1520.7053195983171 243.73304035514593 7741.4019325971603 5979.9501128792763 8543.6045756335952 2230.0224734544754 1634.7953264403682 5907.8076297760381 4678.6749102920294 3622.8705826462165 1446.9858730821616 13596.682848178556 7515.196801488848 13773.132039522607 8300.9095895463252 15365.527378573839 2223.7147761102833 1325.3687232136726 24419.936488905048 2521.0670214958282 1155.120447486639 265.20431634783745 2222.0622342275919 3296.7499333769083 223.6819871515039 1575.4323150964328 5189.4633602648973 2196.7629293948412 1722.7228130996227 848.53403007984161 356.71814401634037 1652.1835598543103 311.47049450555062 844.16460482776165 355.51094473898411 172.39385394006968 1032.8499358897611 1859.1002813279629 283.94926804304146 3544.7240546381204 2519.7356379742755 292.5106028392911 380.33205085314921 234.85986971855891 617.54539772868156 112.92587739229202 817.14383608766354 759.13748508691788 250.79925109305623 390.56884561985487 1215.9508718621482 152.35771381109953 52.006152555346489 681.45065499842167 20.718059003353119 10.966038525104521
leaf_count=837184 2187 6638 21894 10354 7942 27673 9579 1442 52883 39840 41801 11794 9309 33260 28973 19101 8699 60572 36181 61390 50903 107121 12878 7132 174140 13301 7170 1661 11397 20730 1349 9480 35169 11337 7880 4567 1829 9969 1534 5721 2346 895 5807 9576 1602 24927 17198 1610 2366 1394 3573 611 4723 3642 1280 2039 6692 711 325 4534 123 62
internal_value=-0.00108396 -0.0444892 -0.0536666 0.127706 0.14801 -0.0682817 0.0384781 0.0123007 -0.0759135 -0.0299769 0.165852 0.101047 0.058087 0.0640651 0.0123256 0.117641 -0.0222716 0.176866 0.153955 0.190308 0.0362577 -0.0531799 0.0709187 0.127599 -0.0798728 0.102945 0.0305277 -0.0447872 0.0323408 -0.0256997 0.0705995 0.0382955 -0.0438836 0.150574 0.15569 0.125892 0.05813 0.0652631 0.138943 -0.0577391 0.0791376 -0.00293317 0.0947436 0.0890588 0.109053 -0.0729927 0.00163955 0.0671484 -0.00953932 0.102374 0.0605061 -0.0174239 0.0682714 0.192652 0.115352 0.0757078 0.137353 0.162882 -0.000118439 -0.0259115 0.000633024 0.129816
internal_weight=298266 223082 209849 75183.9 63935.6 181122 28727.9 11248.3 151031 30091 53350.3 13232.9 10585.3 20214 10658.6 9921.64 8513.87 43428.6 16058.8 27369.8 11785.1 19432.3 4102.01 9613.23 139992 8428.87 3619.67 5683.19 8028.78 11038.2 5565.14 3024.41 6710.17 5819.63 5560.42 3078.56 1803.7 3874.25 2556.53 5093.8 1797.5 1747.83 1276.58 4052.81 2540.73 3869.3 4154.53 589.399 1224.5 1389.98 1942.91 1822.18 1040.83 2481.86 2109.9 702.039 1499.9 1854.49 407.517 1709.25 285.922 303.477
internal_count=1920000 1535640 1463178 384360 313713 1288544 174634 70647 1084937 203607 253614 72462 60099 119358 68813 53670 55276 199944 77982 121962 72797 134794 23232 49444 1011324 46561 23018 38657 47873 73613 31990 17624 44748 30438 27883 16361 10528 21366 12226 35201 11235 10375 7249 21561 14366 27114 26507 3456 8087 8564 10705 11783 6072 11522 10856 3573 8294 8653 2671 11172 1784 1672
is_linear=0
shrinkage=0.1


Tree=9
num_leaves=63
num_cat=0
split_feature=1 5 3 6 18 15 2 9 17 14 1 1 4 18 6 1 11 3 1 6 6 4 6 6 3 3 11 9 4 3 8 24 2 11 11 31 2 3 60 11 3 201 4 6 18 6 5 2 11 20 20 2 6 50 23 9 6 2 3 6 3 10
split_gain=292812 43598.8 31376.4 14453.7 8925.71 8384.72 6952.36 6640.3 4264.27 4248.56 3723.91 3456.42 2785.85 2690.85 2421.58 2309.61 1960.09 1830.77 1800.15 1759.13 1746.78 1517.11 1499.77 1396.07 1298.71 1249.08 1104.62 1102.15 1342.97 1095.53 1071.45 1000.86 886.107 817.784 799.391 710.753 697.325 684.578 642.412 614.154 585.032 486.038 482.083 467.393 461.831 446.627 422.596 407.69 381.874 330.739 324.65 306.497 303.948 300.63 272.833 231.55 228.945 214.516 177.651 176.817 132.077 126.043
threshold=0.43421914997971489 0.19066721922624272 0.67597290048393777 1.6697061432841982 0.62306779858395245 0.0083460483432227662 0.2879560337291171 0.51550728405576274 1.4617367426575483 -0.54001534085828817 1.196698015643207 1.2748118363462408 0.59630456147003841 0.62637554999318323 -0.32315242716356207 1.2748118363462408 1.3205012568352907 0.67597290048393777 0.98463424626866713 -0.38280460148237666 -0.23151653384827667 0.51513118982850647 -0.35945140983415991 -0.30830284334377206 0.31788415821354005 0.52250629665376735 1.3449272622189536 0.174985217367712 2.8817082753775138 0.31788415821354005 -0.58136744563005938 1.0000000180025095e-35 0.2879560337291171 1.3205012568352907 1.3205012568352907 -0.47569922334150555 0.2879560337291171 -0.70522653398759594 0.1504947835851351 0.74381613794637225 0.67597290048393777 0.53460854006488057 0.44841335012313771 -0.40882310304696606 0.29229265766087753 -0.41307490696117943 1.2023208573648514 -0.596326643927091 1.3205012568352907 2.5536835356398817 4.3503261496615915 0.2879560337291171 -0.39333892162803968 1.8327338527350192 0.63312715321325064 1.6461963934809771 0.070583653220571113 0.2879560337291171 0.31788415821354005 -0.32435816260192107 0.52250629665376735 3.4536327914787135
decision_type=2 2 2 2 2 2 2 2 2 2 2 2 2 2 2 2 2 2 2 2 2 2 2 2 2 2 2 2 2 2 2 2 2 2 2 2 2 2 2 2 2 2 2 2 2 2 2 2 2 2 2 2 2 2 2 2 2 2 2 2 2 2
left_child=1 5 4 7 10 8 11 17 12 40 19 20 30 27 32 21 25 44 22 51 38 41 33 -19 37 -9 -16 28 -5 39 -1 35 -11 -8 -14 -10 -21 -17 -4 -15 47 -6 -22 -33 -3 50 -31 -7 -24 59 -12 -2 55 -26 -47 -20 -42 -18 -23 -13 -29 -54
right_child=2 3 6 13 15 9 18 16 31 14 45 49 34 29 26 24 57 23 52 36 42 58 48 -25 53 -27 -28 60 -30 46 -32 43 -34 -35 -36 -37 -38 -39 -40 -41 56 -43 -44 -45 -46 54 -48 -49 -50 -51 -52 -53 61 -55 -56 -57 -58 -59 -60 -61 -62 -63
leaf_value=0.091914180986580329 0.0080861200362010409 0.027364275981374149 -0.02337801148378112 -0.085104868016321944 -0.0037956133666399517 0.035226920439619745 -0.10336354450944998 0.0225701144894793 0.069975457964130336 0.038557991419905055 -0.10364078424971085 -0.11101482457748485 0.034087053559880127 0.0080367635787709467 -0.028136378420257926 -0.11514242962998873 -0.10511473683761829 0.036586344414094599 -0.17957578508016911 -0.065941172648522103 -0.1133384277767575 -0.059729746779876074 -0.17758134190834818 -0.042685718089103181 -0.089529313652818077 -0.081910867575365087 -0.1284177370475815 -0.1815997167996998 -0.17284665819305467 -0.077740636091568338 0.076257935042093633 0.027126808142049066 -0.057642761431064726 -0.18602042559235291 -0.067790309238531285 0.018090309279616166 -0.13256696020740313 0.021389500683788538 -0.096498419408799135 -0.12454154338949941 0.024841344492265136 0.053914499699378331 -0.20164152077128278 -0.037958762867671407 0.081755086536900667 -0.13893393406999541 -0.18127216231989524 0.083240640617791961 -0.22545607812957 -0.20296767522762105 -0.18219023274507185 -0.048627234869900463 -0.21309005070501993 -0.17038333514184589 -0.1861361077368226 -0.20379855987456708 -0.092376777075119279 -0.19115322641532467 -0.15229611284533551 -0.18084392457750453 -0.23745849942451558 -0.18960622775510569
leaf_weight=114989.43571943045 2528.4495485573952 2062.373997211449 4078.8039847186501 2889.3745218596887 1863.2196599543058 2136.1043919920921 4448.5749386996031 1651.5089250802994 5562.6300675719976 9230.3079435378313 2216.3835412743479 742.82109087622302 5926.2420441061258 1972.0486795902252 7827.5847073793411 460.84601051081745 369.36760364472866 5422.7927838861942 6907.3424954096572 3293.4029483943032 2136.5638819933647 494.79650497436523 5913.4483466947786 3763.3962705624654 1452.6646121394547 3725.284828543663 1277.734197691083 598.1349228322506 4402.2626089006662 919.9205346852541 70518.492654574889 1894.0851974785328 1068.2950212806463 1637.5796934366226 885.25222529470921 5025.3278236091137 3003.5654019713402 1808.1128435679648 1703.2907337628167 424.64615452289581 1446.5509501099586 6733.1121966798892 870.01390397369505 2642.8977143317461 6422.8286438286304 1821.5574656598824 689.96006767451763 10275.740889966488 2319.7005560696125 3092.7632385189372 689.97562955641888 1529.2663870155811 23881.58537515267 672.8705713025256 3736.1984121195524 9206.0625115467683 188.31723193824291 1344.9671268761158 356.86319637298584 708.46974484467864 1448.1250863671303 2527.3702178272179
leaf_count=641675 12395 10466 19267 12594 9347 11480 17886 8376 29854 48245 9320 3202 30795 9194 38424 2062 1670 26857 25821 15497 9535 2296 23011 18178 6176 16068 6146 2512 17407 4119 392027 9553 4686 6263 4257 25983 13046 8960 8012 1796 7261 34668 3507 12871 35013 7389 2813 56547 8835 11606 2684 7101 86485 2748 14791 34247 908 5384 1519 2916 5813 10436
internal_value=0.00325677 0.0564214 -0.140983 -0.0429692 -0.0600175 0.0721439 -0.178667 0.00224144 0.0796357 0.025684 -0.104852 -0.113677 0.0836564 -0.126864 -0.00463829 0.000935314 -0.079506 0.0350448 -0.193912 -0.0646338 -0.0770657 0.0287931 -0.163245 0.00411018 -0.0589579 -0.049819 -0.0422087 -0.156278 -0.138078 -0.0583099 0.0859627 0.0285103 0.0285789 -0.125604 0.0208466 0.0453494 -0.0977207 -0.00634137 -0.0449178 -0.0154534 0.0675707 0.0414061 -0.138891 -0.010787 0.0685351 -0.154054 -0.122112 0.0749774 -0.19107 -0.184487 -0.122289 -0.0132879 -0.204239 -0.115125 -0.170666 -0.193415 0.0113392 -0.172616 -0.098517 -0.145103 -0.221131 -0.210843
internal_weight=381838 279002 102836 38107 32661.3 240895 70174.4 24762.5 207444 33450.6 18818.8 13332.7 192319 13344.5 19403.9 13842.5 7091.13 17671.4 56841.7 10354.7 8788.67 9447.99 14319.3 9186.19 4394.49 5376.79 9105.32 9337.9 7291.64 4006.58 185508 15124.9 10298.6 6086.15 6811.49 10588 6296.97 2268.96 5782.09 2396.69 14046.7 8596.33 3006.58 4536.98 8485.2 8464.12 1609.88 12411.8 8233.15 4544.05 2906.36 4057.72 42522.4 2125.54 5557.76 16113.4 1634.87 1714.33 851.66 1451.29 2046.26 26409
internal_count=1920000 1498972 421028 178260 149999 1320712 271029 122012 1147015 173697 82223 58045 1068754 56248 97501 67776 31498 90514 212984 48039 40321 47830 55995 45035 19946 24444 44570 38326 30001 17922 1033702 78261 52931 24149 35052 55837 28543 11022 27279 10990 76196 44015 13042 22424 45479 34184 6932 68027 31846 17724 12004 19496 156989 8924 22180 60068 8169 7054 3815 6118 8325 96921
is_linear=0
shrinkage=0.1


Tree=10
num_leaves=48
num_cat=0
split_feature=10 60 156 56 230 364 164 105 607 250 364 383 104 520 499 385 59 13 10 279 279 276 10 224 351 30 108 31 224 6 284 451 360 2 145 214 358 31 550 105 177 474 279 537 19 179 511
split_gain=353.15 8589.67 335052 4.59954e+06 17686.3 201459 517810 15226 36144.6 9423.1 30039.1 8620.88 1721.55 723.52 3482.42 359.297 1400.86 2401.81 291.914 1008.16 4178.27 22647.4 50492.4 3932.58 3779.5 10426.7 1217.69 6262.91 617.518 502.17 222.913 521.822 210.389 1147.52 146.709 141.498 124.71 663.943 84.7055 415.105 57.2166 47.739 42.0938 216.932 39.2344 2.48871e-05 8.30125e-09
threshold=4.2002911318743488 3.1414517429194952 2.9062469583414843 4.185788799133606 1.0164059004212171 0.79544430538395594 0.63184524850357615 0.6191728780374558 0.61035541158666284 5.3886206713882405 0.79544430538395594 1.9417610213285563 2.5915622604223807 11.167946568590528 1.0000000180025095e-35 -0.75341861374697916 0.20731643369174721 -0.41367325854423037 2.802789036831872 4.4362819779885205 4.2815740746275459 0.029983379406730713 3.4536327914787135 2.2015653071918719 7.9781646034013241 0.29180329130677263 8.0954240243052684 3.0461351798279193 2.5017135462533662 -0.35945140983415991 14.444068846210095 -0.40617259808615608 4.6176623341759901 -0.30724507953316416 1.4954664319998685 0.099028228258761106 6.2361890001535087 2.8988726641247675 12.973369615661271 0.62137754083359897 3.546892070383425 5.063578871583176 4.4597010642771089 4.0293994556519701 10.84122823958605 2.9586587373218642 -0.32279944359849611
decision_type=2 2 2 2 2 2 2 2 2 2 2 2 2 2 2 2 2 2 2 2 2 2 2 2 2 2 2 2 2 2 2 2 2 2 2 2 2 2 2 2 2 2 2 2 2 2 2
left_child=18 13 4 7 9 6 -6 -4 -9 11 -11 -3 -7 15 -15 16 34 -18 30 20 32 22 -22 -23 26 29 28 -28 -21 -26 38 -32 41 -34 -2 45 40 -38 42 46 -17 -20 44 -44 -1 -16 -40
right_child=1 2 3 -5 5 12 -8 8 -10 10 -12 -13 -14 14 35 36 17 -19 19 24 21 23 -24 -25 25 -27 27 -29 -30 -31 31 -33 33 -35 -36 -37 37 -39 39 -41 -42 -43 43 -45 -46 -47 -48
leaf_value=-0.079486721120790471 -3.795527331594613 19.940600721965879 -2.7749906102822504 4295.1830366129252 -42.808945881537014 -33.377859296746756 1794.1626114925339 453.80703063410647 15.296546969209466 136.84676433623403 -42.165218303276205 -0.21265298258770746 3.9357561075828027 -23.207922411792186 -0.082643427853409515 -0.053420393523923575 -31.680051430439104 -1.4471922566237243 -0.15836557680867619 0.0065428435478103418 5.4688230056724763 -0.084574408654447875 -272.23998165393431 -17.75976930034377 24.106406259133731 132.87544676311455 -0.080059861154823941 96.180966004336668 4.2949600346423038 -5.8134925864957294 -37.322355845289309 -0.080039576304369461 -12.557493308033107 -0.53789122026126213 -0.28085595423971088 -3.6728570598999877 0.021346577968570084 4.3423587768366314 -0.080204802384572615 -10.080807549587558 -0.44578622957334119 -1.1457248374711912 -0.30532888154037391 -11.402282539519719 -1.1711514567314807 -0.084187966079964482 -0.080159085858467705
leaf_weight=779.9435462828551 0.13455902773878547 0.22976155499766715 0.035197941295336821 0.0026773680975242789 0.0046715894748554868 0.02394730075544204 0.0022850865531357208 0.0026438293444073224 0.0065033849465905291 0.010236417410238619 0.11125609893473376 2.7859642874366433 0.025564384448561364 0.077839520257575123 0.14448478646136209 147.25142316955802 0.041013531646491574 0.073134533826305415 975.0628179142409 1.2684193320619792 0.018021514893851953 0.54153166998912639 0.010282669646173304 0.16399920552466796 0.0082690904964692891 0.0082734432653523982 0.036196595228830009 0.0083107234677299857 0.45667215188337085 0.017441592765391145 0.005370234526202178 0.01256502760389182 0.080144429966788944 8.8966283478384032 1.0118111397226475 0.13927774992905784 2.8328168750158591 0.40664348996158706 0.049913738621398807 0.049996771384138272 3.8127797545011779 0.48993749795795238 6.4822397089710941 0.01766436994964049 0.32936034636872946 0.37529879422345402 0.19446258456458099
leaf_count=1857233 49 368 6 299 18 15 118 49 50 102 135 188 28 47 48 5025 46 21 40174 607 82 258 33 81 18 35 74 34 365 35 17 27 274 3478 113 30 135 123 18 25 67 375 9358 29 176 33 81
internal_value=-0.115557 0.0269526 5.12275 270.113 1.22115 56.689 560.588 27.0964 142.04 0.222752 -27.0825 1.32278 -14.1117 -0.0787024 -3.20474 -0.0638945 -1.74535 -12.3099 -0.128372 -0.164594 -0.168918 -7.71179 -95.4204 -4.19314 2.19752 35.2305 1.56314 17.8945 1.14179 3.80937 -0.0829473 -11.2313 -0.163296 -0.645202 -0.693402 -0.842234 -0.0501586 0.563755 -0.0826932 -1.77869 -0.0633235 -0.158861 -0.0820587 -0.335486 -0.0799475 -0.0837586 -0.0801684
internal_weight=1933.69 159.542 3.24071 0.0470225 3.19369 0.0564684 0.00695668 0.0443452 0.00914721 3.13722 0.121493 3.01573 0.0495117 156.301 0.736901 155.564 1.26052 0.114148 1774.15 987.067 985.263 0.733835 0.0283042 0.705531 1.80358 0.0339841 1.7696 0.0445073 1.72509 0.0257107 787.085 0.0179353 984.53 8.97677 1.14637 0.659061 154.304 3.23946 787.067 0.294373 151.064 975.553 786.773 6.4999 780.273 0.519784 0.244376
internal_count=1920000 7113 1376 404 972 179 136 105 99 793 237 556 43 5737 158 5579 229 67 1912887 45923 44755 454 115 339 1168 88 1080 108 972 53 1866964 44 44301 3752 162 111 5350 258 1866920 124 5092 40549 1866796 9387 1857409 81 99
is_linear=0
shrinkage=0.1


Tree=11
num_leaves=11
num_cat=0
split_feature=192 199 380 389 10 482 356 396 174 609
split_gain=89333.3 5412.82 1887.65 1441.42 18360 71132.5 21316.7 1185.06 105012 607.95
threshold=14.343654775323319 9.3861260159280704 9.9705691129290717 7.0008850993033667 4.2002911318743488 4.0519906629215159 8.9786959527071151 5.184024426870514 2.0878933689819257 1.0000000180025095e-35
decision_type=2 2 2 2 2 2 2 2 2 2
left_child=1 2 3 7 6 -6 -5 9 -9 -1
right_child=-2 -3 -4 4 5 -7 -8 8 -10 -11
leaf_value=-0.091353068153813916 -687.44849369655549 -108.66904843279902 -63.171707247141619 -0.08001280084356413 -0.080004474011712415 -907.54378238996094 -358.89775733547413 -0.64450746830530381 -221.2015903729388 -4.4556453955729101
